svm_type c_svc
kernel_type rbf
gamma 6.10352e-005
nr_class 3
total_sv 268
rho -1.55984 -1.87225 0.930802
label 1 3 2
nr_sv 127 37 104
SV
0 1.021016974518941 1:-2 2:-159 3:217 4:-3 5:-126 6:-12 7:-4 8:-86 9:-4 10:-3 11:-93 12:3 13:-3 14:-159 15:216 16:-3 17:-125 18:-11 19:-4 20:-87 21:-4 22:-4 23:-94 24:3 25:-2 26:-159 27:216 28:-2 29:-125 30:-11 31:-4 32:-88 33:-6 34:-3 35:-94 36:2 37:-2 38:-159 39:215 40:-1 41:-125 42:-11 43:-1 44:-88 45:-7 46:-3 47:-95 48:2 49:-2 50:-160 51:215 52:-3 53:-126 54:-11 55:-3 56:-89 57:-7 58:-3 59:-95 60:2 61:-2 62:-161 63:215 64:-2 65:-127 66:-11 67:-3 68:-90 69:-7 70:-2 71:-95 72:2 73:-3 74:-161 75:215 76:0 77:-127 78:-11 79:0 80:-91 81:-7 82:-1 83:-96 84:2 85:-3 86:-162 87:214 88:-5 89:-127 90:-12 91:-4 92:-92 93:-8 94:-3 95:-96 96:2 97:-3 98:-162 99:214 100:-5 101:-129 102:-15 103:-4 104:-92 105:-7 106:-2 107:-96 108:2 
1.484902507009045 0 1:3 2:-169 3:296 4:6 5:-136 6:-30 7:4 8:-95 9:19 10:3 11:-103 12:1 13:3 14:-168 15:296 16:2 17:-137 18:-30 19:1 20:-93 21:17 22:4 23:-102 24:1 25:3 26:-168 27:296 28:2 29:-137 30:-29 31:3 32:-92 33:15 34:4 35:-102 36:0 37:3 38:-167 39:295 40:5 41:-137 42:-31 43:4 44:-92 45:14 46:3 47:-101 48:0 49:3 50:-167 51:294 52:5 53:-135 54:-30 55:5 56:-93 57:15 58:4 59:-101 60:0 61:3 62:-166 63:293 64:4 65:-133 66:-32 67:4 68:-93 69:16 70:3 71:-101 72:1 73:3 74:-166 75:291 76:4 77:-132 78:-32 79:3 80:-93 81:19 82:4 83:-101 84:2 85:3 86:-166 87:289 88:4 89:-133 90:-31 91:3 92:-93 93:20 94:4 95:-100 96:3 97:4 98:-165 99:288 100:2 101:-133 102:-30 103:0 104:-92 105:22 106:3 107:-100 108:4 
0 14.96913191618208 1:0 2:-173 3:210 4:-5 5:-157 6:-15 7:0 8:-92 9:-3 10:0 11:-101 12:8 13:0 14:-173 15:210 16:-7 17:-158 18:-18 19:0 20:-92 21:-3 22:0 23:-101 24:7 25:0 26:-173 27:211 28:-6 29:-159 30:-20 31:0 32:-92 33:-4 34:0 35:-101 36:7 37:0 38:-173 39:211 40:-7 41:-160 42:-20 43:0 44:-92 45:-4 46:0 47:-101 48:7 49:0 50:-173 51:211 52:-9 53:-160 54:-20 55:0 56:-92 57:-4 58:0 59:-101 60:7 61:0 62:-173 63:211 64:-11 65:-159 66:-17 67:0 68:-92 69:-4 70:0 71:-101 72:7 73:1 74:-173 75:211 76:-10 77:-156 78:-13 79:0 80:-92 81:-4 82:0 83:-101 84:7 85:1 86:-172 87:211 88:-7 89:-151 90:-9 91:-1 92:-90 93:-2 94:0 95:-101 96:7 97:1 98:-172 99:211 100:-2 101:-146 102:-5 103:0 104:-89 105:-1 106:0 107:-101 108:7 
0 22.62741661071777 1:0 2:-172 3:207 4:-9 5:-155 6:-20 7:0 8:-91 9:-2 10:0 11:-101 12:12 13:0 14:-172 15:207 16:-15 17:-157 18:-22 19:0 20:-91 21:-2 22:0 23:-101 24:12 25:0 26:-172 27:207 28:-17 29:-157 30:-22 31:1 32:-90 33:0 34:0 35:-101 36:12 37:0 38:-173 39:206 40:-12 41:-156 42:-19 43:1 44:-89 45:2 46:-3 47:-102 48:11 49:0 50:-173 51:206 52:-8 53:-154 54:-12 55:1 56:-89 57:2 58:-1 59:-102 60:11 61:0 62:-174 63:206 64:-4 65:-147 66:-2 67:1 68:-90 69:3 70:-1 71:-102 72:10 73:0 74:-174 75:205 76:-1 77:-145 78:1 79:0 80:-90 81:4 82:-1 83:-103 84:10 85:0 86:-174 87:205 88:0 89:-145 90:2 91:-1 92:-90 93:5 94:0 95:-103 96:10 97:0 98:-174 99:205 100:2 101:-147 102:-3 103:-1 104:-90 105:6 106:0 107:-103 108:10 
0.08162071971828791 0 1:2 2:-167 3:185 4:2 5:-124 6:-6 7:2 8:-90 9:9 10:2 11:-98 12:10 13:2 14:-167 15:183 16:3 17:-126 18:-7 19:2 20:-90 21:8 22:2 23:-97 24:10 25:2 26:-167 27:181 28:2 29:-127 30:-8 31:4 32:-91 33:9 34:2 35:-97 36:10 37:2 38:-167 39:179 40:1 41:-130 42:-10 43:4 44:-93 45:10 46:2 47:-97 48:9 49:2 50:-167 51:178 52:0 53:-133 54:-12 55:0 56:-93 57:9 58:1 59:-97 60:9 61:1 62:-167 63:176 64:-1 65:-136 66:-15 67:1 68:-91 69:7 70:1 71:-96 72:8 73:2 74:-167 75:174 76:0 77:-140 78:-18 79:5 80:-86 81:0 82:0 83:-96 84:7 85:2 86:-167 87:173 88:-4 89:-142 90:-18 91:3 92:-85 93:-6 94:0 95:-95 96:7 97:1 98:-166 99:172 100:-8 101:-147 102:-21 103:2 104:-85 105:-7 106:0 107:-94 108:7 
0 1.091023015745481 1:0 2:-162 3:155 4:0 5:-133 6:16 7:1 8:-84 9:6 10:0 11:-90 12:7 13:0 14:-162 15:155 16:0 17:-133 18:16 19:0 20:-84 21:7 22:0 23:-90 24:7 25:0 26:-162 27:155 28:-1 29:-133 30:14 31:1 32:-84 33:7 34:0 35:-90 36:7 37:0 38:-162 39:155 40:1 41:-133 42:10 43:-1 44:-84 45:8 46:0 47:-90 48:7 49:0 50:-162 51:155 52:3 53:-133 54:5 55:-1 56:-84 57:8 58:0 59:-90 60:7 61:0 62:-162 63:155 64:2 65:-133 66:0 67:-1 68:-84 69:7 70:0 71:-90 72:7 73:0 74:-162 75:156 76:3 77:-133 78:-4 79:-1 80:-85 81:4 82:0 83:-90 84:6 85:0 86:-162 87:156 88:5 89:-132 90:-8 91:-1 92:-85 93:3 94:0 95:-90 96:6 97:0 98:-162 99:157 100:6 101:-130 102:-12 103:-1 104:-86 105:1 106:0 107:-90 108:5 
0 10.06612783813441 1:0 2:-176 3:248 4:10 5:-153 6:-24 7:-1 8:-96 9:-13 10:-1 11:-104 12:7 13:1 14:-176 15:249 16:15 17:-150 18:-20 19:-1 20:-95 21:-15 22:-1 23:-104 24:7 25:1 26:-177 27:251 28:7 29:-147 30:-17 31:-1 32:-95 33:-17 34:0 35:-104 36:5 37:1 38:-176 39:252 40:0 41:-145 42:-14 43:-2 44:-95 45:-18 46:0 47:-104 48:4 49:0 50:-176 51:252 52:2 53:-145 54:-12 55:0 56:-94 57:-16 58:1 59:-104 60:4 61:0 62:-175 63:252 64:-2 65:-145 66:-12 67:1 68:-94 69:-12 70:1 71:-103 72:5 73:0 74:-175 75:253 76:-2 77:-147 78:-13 79:3 80:-93 81:-9 82:1 83:-103 84:5 85:0 86:-175 87:253 88:-8 89:-149 90:-17 91:2 92:-91 93:-5 94:1 95:-102 96:6 97:0 98:-174 99:253 100:-23 101:-150 102:-17 103:3 104:-90 105:-2 106:1 107:-102 108:6 
0 3.537449979218708 1:0 2:-174 3:253 4:-24 5:-150 6:-13 7:3 8:-92 9:1 10:1 11:-101 12:6 13:0 14:-173 15:253 16:-10 17:-148 18:-2 19:1 20:-93 21:3 22:1 23:-101 24:6 25:0 26:-173 27:253 28:-1 29:-144 30:6 31:2 32:-94 33:5 34:1 35:-101 36:6 37:0 38:-173 39:253 40:0 41:-144 42:6 43:1 44:-94 45:6 46:0 47:-101 48:6 49:0 50:-173 51:253 52:3 53:-146 54:5 55:0 56:-94 57:7 58:0 59:-101 60:6 61:1 62:-173 63:253 64:6 65:-147 66:-1 67:0 68:-93 69:8 70:0 71:-101 72:6 73:0 74:-173 75:253 76:11 77:-147 78:-5 79:0 80:-93 81:8 82:0 83:-101 84:6 85:0 86:-173 87:253 88:10 89:-145 90:-6 91:-2 92:-92 93:7 94:0 95:-101 96:6 97:0 98:-173 99:253 100:10 101:-142 102:-10 103:-2 104:-91 105:7 106:0 107:-101 108:6 
0 4.486857184471533 1:0 2:-174 3:251 4:-4 5:-124 6:-6 7:-1 8:-89 9:-5 10:-1 11:-103 12:9 13:0 14:-173 15:252 16:-1 17:-124 18:-8 19:-1 20:-87 21:-5 22:-2 23:-102 24:9 25:0 26:-172 27:252 28:-1 29:-124 30:-8 31:0 32:-86 33:-4 34:-2 35:-101 36:9 37:-1 38:-171 39:251 40:0 41:-125 42:-9 43:-1 44:-86 45:-2 46:-1 47:-100 48:9 49:-1 50:-171 51:251 52:-2 53:-126 54:-9 55:0 56:-86 57:-1 58:-3 59:-100 60:10 61:-3 62:-171 63:251 64:-3 65:-127 66:-10 67:-1 68:-85 69:1 70:-1 71:-100 72:10 73:-3 74:-171 75:251 76:-3 77:-127 78:-10 79:-1 80:-83 81:4 82:-3 83:-100 84:10 85:-3 86:-171 87:252 88:-4 89:-129 90:-11 91:-2 92:-82 93:6 94:-3 95:-100 96:10 97:-4 98:-171 99:253 100:-6 101:-131 102:-13 103:-3 104:-81 105:6 106:-3 107:-99 108:9 
0 15.13913392044352 1:-3 2:-171 3:252 4:-4 5:-129 6:-11 7:-2 8:-82 9:6 10:-3 11:-100 12:10 13:-4 14:-171 15:253 16:-6 17:-131 18:-13 19:-3 20:-81 21:6 22:-3 23:-99 24:9 25:-3 26:-170 27:254 28:-7 29:-133 30:-12 31:-2 32:-81 33:7 34:-4 35:-98 36:9 37:-4 38:-170 39:255 40:-8 41:-138 42:-13 43:-4 44:-81 45:7 46:-3 47:-98 48:9 49:-4 50:-169 51:255 52:-8 53:-143 54:-14 55:-4 56:-83 57:8 58:-4 59:-98 60:9 61:-4 62:-170 63:255 64:-13 65:-147 66:-13 67:-4 68:-84 69:8 70:-4 71:-98 72:10 73:-4 74:-171 75:255 76:-17 77:-151 78:-13 79:-5 80:-85 81:8 82:-2 83:-99 84:10 85:-4 86:-172 87:255 88:-14 89:-155 90:-13 91:-3 92:-86 93:9 94:-2 95:-100 96:10 97:-3 98:-173 99:255 100:-14 101:-155 102:-10 103:-3 104:-85 105:10 106:-3 107:-101 108:11 
0 6.794683568188325 1:-1 2:-175 3:259 4:8 5:-145 6:-13 7:-2 8:-94 9:-1 10:0 11:-104 12:11 13:-1 14:-175 15:259 16:10 17:-142 18:-13 19:-1 20:-93 21:-1 22:-1 23:-104 24:11 25:-1 26:-175 27:259 28:9 29:-140 30:-12 31:-1 32:-93 33:-3 34:-1 35:-104 36:11 37:-1 38:-175 39:259 40:2 41:-137 42:-6 43:-1 44:-94 45:-4 46:-1 47:-104 48:12 49:-1 50:-175 51:259 52:1 53:-134 54:-3 55:0 56:-95 57:-4 58:-1 59:-104 60:12 61:0 62:-175 63:259 64:1 65:-132 66:-3 67:-2 68:-95 69:-5 70:0 71:-104 72:12 73:0 74:-175 75:259 76:0 77:-132 78:-4 79:0 80:-95 81:-5 82:0 83:-104 84:12 85:0 86:-175 87:259 88:0 89:-132 90:-4 91:-1 92:-95 93:-4 94:0 95:-104 96:12 97:0 98:-175 99:258 100:0 101:-132 102:-4 103:0 104:-98 105:-2 106:0 107:-104 108:13 
0 22.62741661071777 1:0 2:-175 3:259 4:1 5:-132 6:-3 7:-2 8:-95 9:-5 10:0 11:-104 12:12 13:0 14:-175 15:259 16:0 17:-132 18:-4 19:0 20:-95 21:-5 22:0 23:-104 24:12 25:0 26:-175 27:259 28:0 29:-132 30:-4 31:-1 32:-95 33:-4 34:0 35:-104 36:12 37:0 38:-175 39:258 40:0 41:-132 42:-4 43:0 44:-98 45:-2 46:0 47:-104 48:13 49:-1 50:-175 51:257 52:1 53:-133 54:-5 55:0 56:-98 57:-1 58:1 59:-104 60:13 61:-1 62:-174 63:256 64:0 65:-133 66:-3 67:0 68:-98 69:0 70:1 71:-104 72:13 73:-1 74:-174 75:255 76:0 77:-133 78:-4 79:0 80:-97 81:1 82:1 83:-105 84:14 85:-1 86:-173 87:254 88:-1 89:-133 90:-3 91:1 92:-97 93:2 94:1 95:-105 96:14 97:0 98:-173 99:253 100:-1 101:-133 102:-3 103:2 104:-96 105:3 106:0 107:-105 108:14 
0 22.62741661071777 1:-1 2:-173 3:254 4:-1 5:-133 6:-3 7:1 8:-97 9:2 10:1 11:-105 12:14 13:0 14:-173 15:253 16:-1 17:-133 18:-3 19:2 20:-96 21:3 22:0 23:-105 24:14 25:0 26:-173 27:252 28:1 29:-134 30:-4 31:1 32:-96 33:3 34:0 35:-105 36:13 37:1 38:-173 39:251 40:-1 41:-137 42:-8 43:1 44:-97 45:3 46:0 47:-105 48:13 49:1 50:-173 51:251 52:-3 53:-140 54:-12 55:2 56:-97 57:1 58:0 59:-104 60:12 61:2 62:-173 63:250 64:-3 65:-143 66:-15 67:2 68:-98 69:1 70:0 71:-103 72:12 73:3 74:-173 75:249 76:-8 77:-147 78:-18 79:2 80:-98 81:2 82:1 83:-103 84:11 85:2 86:-172 87:248 88:-12 89:-151 90:-17 91:3 92:-98 93:3 94:1 95:-102 96:10 97:3 98:-172 99:246 100:-11 101:-154 102:-13 103:3 104:-97 105:4 106:2 107:-102 108:10 
0 9.006752700715884 1:0 2:-172 3:228 4:4 5:-142 6:-16 7:-1 8:-90 9:-8 10:0 11:-101 12:9 13:0 14:-173 15:228 16:2 17:-142 18:-14 19:-1 20:-91 21:-9 22:1 23:-101 24:8 25:0 26:-173 27:227 28:1 29:-143 30:-13 31:0 32:-91 33:-8 34:1 35:-101 36:8 37:0 38:-173 39:227 40:0 41:-144 42:-14 43:0 44:-91 45:-8 46:1 47:-102 48:8 49:0 50:-174 51:225 52:-1 53:-147 54:-15 55:1 56:-90 57:-5 58:1 59:-102 60:9 61:0 62:-173 63:224 64:-8 65:-150 66:-19 67:1 68:-90 69:-4 70:0 71:-102 72:10 73:0 74:-173 75:224 76:-12 77:-152 78:-24 79:1 80:-90 81:-3 82:0 83:-102 84:11 85:0 86:-173 87:223 88:-12 89:-153 90:-24 91:2 92:-91 93:-2 94:0 95:-102 96:11 97:0 98:-173 99:223 100:-19 101:-153 102:-18 103:1 104:-91 105:-1 106:0 107:-101 108:10 
0 13.68349917781205 1:2 2:-170 3:204 4:-9 5:-153 6:-12 7:4 8:-92 9:3 10:1 11:-99 12:8 13:2 14:-170 15:203 16:-3 17:-153 18:-3 19:2 20:-93 21:4 22:2 23:-100 24:8 25:2 26:-170 27:202 28:0 29:-153 30:4 31:2 32:-94 33:6 34:2 35:-100 36:8 37:2 38:-170 39:201 40:1 41:-152 42:10 43:3 44:-94 45:7 46:1 47:-100 48:10 49:1 50:-171 51:199 52:0 53:-150 54:14 55:3 56:-94 57:9 58:1 59:-101 60:11 61:1 62:-171 63:198 64:1 65:-150 66:13 67:1 68:-93 69:9 70:0 71:-101 72:12 73:1 74:-171 75:198 76:0 77:-150 78:14 79:1 80:-93 81:9 82:1 83:-101 84:12 85:1 86:-171 87:197 88:2 89:-149 90:12 91:0 92:-92 93:9 94:1 95:-101 96:11 97:1 98:-171 99:197 100:1 101:-148 102:10 103:0 104:-92 105:8 106:1 107:-101 108:11 
0 0.9068392409543689 1:0 2:-184 3:236 4:0 5:-146 6:-21 7:0 8:-141 9:-44 10:0 11:-109 12:6 13:0 14:-184 15:237 16:0 17:-148 18:-15 19:0 20:-136 21:-42 22:0 23:-109 24:6 25:0 26:-184 27:237 28:-3 29:-142 30:-16 31:1 32:-131 33:-39 34:0 35:-109 36:6 37:0 38:-184 39:237 40:1 41:-144 42:-15 43:0 44:-133 45:-41 46:0 47:-109 48:6 49:0 50:-184 51:237 52:-1 53:-140 54:-14 55:1 56:-128 57:-38 58:0 59:-109 60:6 61:0 62:-184 63:237 64:0 65:-137 66:-14 67:1 68:-122 69:-34 70:0 71:-109 72:6 73:0 74:-184 75:237 76:1 77:-135 78:-14 79:1 80:-118 81:-27 82:0 83:-109 84:6 85:0 86:-184 87:237 88:0 89:-135 90:-14 91:0 92:-115 93:-21 94:0 95:-109 96:6 97:0 98:-183 99:237 100:0 101:-132 102:-14 103:0 104:-111 105:-16 106:0 107:-109 108:6 
0 4.362835390555616 1:0 2:-177 3:239 4:-13 5:-154 6:-11 7:0 8:-107 9:4 10:0 11:-103 12:4 13:0 14:-174 15:239 16:0 17:-152 18:-11 19:0 20:-104 21:4 22:0 23:-100 24:4 25:1 26:-172 27:240 28:0 29:-150 30:-12 31:2 32:-101 33:1 34:1 35:-99 36:2 37:0 38:-170 39:240 40:1 41:-149 42:-12 43:2 44:-99 45:0 46:1 47:-98 48:2 49:1 50:-168 51:242 52:0 53:-148 54:-14 55:0 56:-97 57:-2 58:1 59:-97 60:1 61:1 62:-166 63:243 64:0 65:-146 66:-15 67:0 68:-95 69:-2 70:1 71:-96 72:0 73:0 74:-166 75:243 76:0 77:-145 78:-16 79:0 80:-95 81:-2 82:0 83:-95 84:0 85:0 86:-166 87:243 88:-1 89:-145 90:-18 91:0 92:-95 93:-2 94:0 95:-95 96:0 97:0 98:-168 99:243 100:0 101:-147 102:-21 103:0 104:-97 105:-2 106:0 107:-98 108:0 
0 15.31760209468198 1:0 2:-164 3:239 4:1 5:-137 6:-36 7:0 8:-97 9:6 10:0 11:-97 12:3 13:-1 14:-168 15:239 16:1 17:-141 18:-30 19:0 20:-100 21:6 22:0 23:-100 24:3 25:0 26:-167 27:239 28:1 29:-140 30:-25 31:0 32:-100 33:6 34:0 35:-100 36:3 37:1 38:-167 39:237 40:1 41:-140 42:-19 43:0 44:-100 45:8 46:0 47:-100 48:5 49:0 50:-166 51:237 52:1 53:-139 54:-15 55:0 56:-100 57:8 58:0 59:-100 60:5 61:0 62:-165 63:236 64:1 65:-138 66:-13 67:0 68:-100 69:9 70:0 71:-99 72:6 73:0 74:-165 75:236 76:1 77:-137 78:-13 79:0 80:-100 81:9 82:0 83:-99 84:6 85:0 86:-164 87:236 88:0 89:-137 90:-12 91:0 92:-99 93:9 94:0 95:-99 96:6 97:0 98:-164 99:236 100:0 101:-137 102:-12 103:0 104:-99 105:9 106:0 107:-99 108:6 
0 3.616745372712385 1:0 2:-164 3:236 4:0 5:-137 6:-12 7:0 8:-99 9:9 10:0 11:-99 12:6 13:0 14:-164 15:236 16:0 17:-137 18:-12 19:0 20:-99 21:9 22:0 23:-99 24:6 25:0 26:-164 27:236 28:0 29:-137 30:-13 31:0 32:-99 33:9 34:0 35:-99 36:6 37:0 38:-165 39:236 40:0 41:-137 42:-13 43:0 44:-99 45:9 46:0 47:-99 48:6 49:0 50:-166 51:236 52:0 53:-137 54:-15 55:0 56:-99 57:9 58:0 59:-99 60:6 61:0 62:-166 63:236 64:1 65:-137 66:-15 67:0 68:-99 69:9 70:0 71:-99 72:6 73:0 74:-166 75:236 76:2 77:-138 78:-18 79:0 80:-99 81:9 82:0 83:-99 84:6 85:0 86:-166 87:236 88:1 89:-138 90:-19 91:0 92:-99 93:9 94:0 95:-99 96:6 97:0 98:-166 99:236 100:1 101:-139 102:-21 103:0 104:-99 105:9 106:0 107:-99 108:6 
22.62741661071777 6.338857893849315 1:0 2:-167 3:243 4:1 5:-135 6:-46 7:0 8:-89 9:8 10:0 11:-98 12:-1 13:-1 14:-167 15:243 16:1 17:-135 18:-46 19:0 20:-89 21:8 22:0 23:-98 24:-1 25:0 26:-167 27:243 28:0 29:-135 30:-46 31:0 32:-89 33:9 34:0 35:-98 36:-1 37:0 38:-167 39:243 40:-1 41:-138 42:-47 43:0 44:-89 45:9 46:0 47:-98 48:-1 49:0 50:-167 51:243 52:-3 53:-138 54:-47 55:0 56:-89 57:9 58:0 59:-98 60:-1 61:0 62:-167 63:243 64:-2 65:-138 66:-47 67:0 68:-89 69:10 70:0 71:-98 72:-1 73:0 74:-166 75:243 76:0 77:-138 78:-45 79:0 80:-87 81:10 82:0 83:-98 84:-1 85:0 86:-166 87:243 88:0 89:-139 90:-42 91:0 92:-86 93:10 94:0 95:-98 96:-1 97:0 98:-166 99:243 100:0 101:-139 102:-38 103:0 104:-86 105:10 106:0 107:-98 108:-1 
22.62741661071777 0 1:0 2:-164 3:237 4:0 5:-136 6:-12 7:0 8:-86 9:14 10:0 11:-98 12:5 13:0 14:-164 15:237 16:0 17:-134 18:-14 19:0 20:-86 21:15 22:0 23:-98 24:5 25:0 26:-164 27:237 28:0 29:-133 30:-16 31:0 32:-86 33:14 34:0 35:-98 36:5 37:0 38:-164 39:237 40:1 41:-132 42:-18 43:0 44:-86 45:15 46:0 47:-98 48:5 49:0 50:-164 51:237 52:1 53:-131 54:-22 55:0 56:-86 57:15 58:0 59:-98 60:5 61:0 62:-164 63:237 64:0 65:-130 66:-27 67:0 68:-86 69:15 70:0 71:-98 72:5 73:0 74:-166 75:239 76:0 77:-128 78:-35 79:0 80:-86 81:13 82:0 83:-98 84:3 85:0 86:-166 87:239 88:0 89:-126 90:-40 91:0 92:-86 93:13 94:0 95:-98 96:3 97:0 98:-166 99:239 100:0 101:-126 102:-43 103:0 104:-86 105:13 106:0 107:-98 108:3 
22.62741661071777 0 1:0 2:-165 3:238 4:0 5:-130 6:-40 7:0 8:-88 9:16 10:0 11:-98 12:4 13:0 14:-165 15:238 16:0 17:-130 18:-40 19:0 20:-87 21:16 22:0 23:-98 24:4 25:0 26:-165 27:238 28:1 29:-130 30:-40 31:0 32:-87 33:16 34:0 35:-98 36:4 37:0 38:-165 39:238 40:1 41:-131 42:-39 43:0 44:-87 45:16 46:0 47:-98 48:4 49:0 50:-165 51:238 52:1 53:-131 54:-38 55:0 56:-87 57:16 58:0 59:-98 60:4 61:0 62:-165 63:238 64:0 65:-131 66:-38 67:0 68:-87 69:16 70:0 71:-98 72:4 73:0 74:-165 75:238 76:1 77:-131 78:-37 79:1 80:-87 81:15 82:0 83:-98 84:4 85:0 86:-165 87:238 88:1 89:-132 90:-35 91:0 92:-87 93:15 94:0 95:-98 96:4 97:0 98:-165 99:238 100:1 101:-132 102:-32 103:0 104:-87 105:15 106:0 107:-98 108:4 
5.817255079047167 0 1:0 2:-169 3:247 4:0 5:-122 6:-42 7:0 8:-88 9:10 10:0 11:-103 12:4 13:0 14:-169 15:248 16:0 17:-122 18:-43 19:0 20:-88 21:11 22:0 23:-103 24:4 25:0 26:-170 27:248 28:0 29:-122 30:-42 31:0 32:-87 33:11 34:0 35:-103 36:4 37:0 38:-169 39:248 40:0 41:-123 42:-43 43:0 44:-87 45:11 46:0 47:-102 48:3 49:0 50:-168 51:249 52:0 53:-124 54:-43 55:0 56:-88 57:11 58:0 59:-100 60:1 61:0 62:-168 63:249 64:-1 65:-124 66:-42 67:0 68:-88 69:11 70:0 71:-100 72:1 73:0 74:-168 75:249 76:-1 77:-124 78:-40 79:0 80:-88 81:11 82:0 83:-100 84:1 85:0 86:-168 87:248 88:-1 89:-126 90:-38 91:0 92:-88 93:11 94:0 95:-100 96:1 97:0 98:-167 99:248 100:0 101:-128 102:-34 103:1 104:-88 105:11 106:0 107:-100 108:2 
0 22.62741661071777 1:0 2:-167 3:247 4:0 5:-143 6:-12 7:-1 8:-93 9:-4 10:0 11:-102 12:9 13:0 14:-167 15:247 16:0 17:-143 18:-11 19:0 20:-93 21:-3 22:0 23:-102 24:9 25:-1 26:-167 27:247 28:1 29:-142 30:-13 31:0 32:-94 33:-3 34:0 35:-101 36:9 37:-3 38:-167 39:248 40:0 41:-142 42:-15 43:0 44:-95 45:-3 46:0 47:-100 48:7 49:0 50:-167 51:248 52:0 53:-142 54:-15 55:0 56:-95 57:-3 58:0 59:-100 60:7 61:-1 62:-167 63:249 64:-1 65:-143 66:-15 67:1 68:-94 69:-3 70:1 71:-99 72:7 73:0 74:-167 75:248 76:-1 77:-144 78:-13 79:1 80:-94 81:-2 82:-1 83:-99 84:7 85:0 86:-167 87:248 88:0 89:-145 90:-11 91:1 92:-94 93:-2 94:0 95:-99 96:7 97:0 98:-167 99:248 100:0 101:-145 102:-11 103:0 104:-94 105:-1 106:0 107:-99 108:7 
0 22.62741661071777 1:-3 2:-167 3:248 4:0 5:-142 6:-15 7:0 8:-95 9:-3 10:0 11:-100 12:7 13:0 14:-167 15:248 16:0 17:-142 18:-15 19:0 20:-95 21:-3 22:0 23:-100 24:7 25:-1 26:-167 27:249 28:-1 29:-143 30:-15 31:1 32:-94 33:-3 34:1 35:-99 36:7 37:0 38:-167 39:248 40:-1 41:-144 42:-13 43:1 44:-94 45:-2 46:-1 47:-99 48:7 49:0 50:-167 51:248 52:0 53:-145 54:-11 55:1 56:-94 57:-2 58:0 59:-99 60:7 61:0 62:-167 63:248 64:0 65:-145 66:-11 67:0 68:-94 69:-1 70:0 71:-99 72:7 73:0 74:-167 75:248 76:0 77:-143 78:-15 79:0 80:-94 81:-1 82:0 83:-99 84:7 85:0 86:-167 87:248 88:0 89:-142 90:-19 91:0 92:-94 93:-1 94:0 95:-99 96:7 97:0 98:-167 99:248 100:0 101:-141 102:-22 103:0 104:-94 105:0 106:0 107:-99 108:7 
0 12.84488246026974 1:-2 2:-165 3:243 4:-1 5:-134 6:-16 7:0 8:-86 9:8 10:-1 11:-98 12:9 13:-2 14:-165 15:242 16:-1 17:-135 18:-15 19:-1 20:-88 21:9 22:-1 23:-99 24:9 25:-1 26:-165 27:242 28:-1 29:-135 30:-14 31:-1 32:-90 33:9 34:-1 35:-100 36:10 37:-1 38:-165 39:242 40:-2 41:-135 42:-15 43:-1 44:-90 45:9 46:-1 47:-100 48:10 49:-1 50:-166 51:242 52:-1 53:-135 54:-15 55:-1 56:-90 57:9 58:-1 59:-100 60:10 61:-1 62:-166 63:242 64:-2 65:-135 66:-15 67:-2 68:-88 69:11 70:-1 71:-100 72:10 73:-1 74:-167 75:242 76:-2 77:-135 78:-15 79:0 80:-88 81:11 82:-1 83:-100 84:10 85:0 86:-167 87:243 88:-1 89:-134 90:-16 91:-1 92:-88 93:11 94:0 95:-100 96:9 97:0 98:-167 99:243 100:-1 101:-134 102:-16 103:1 104:-91 105:10 106:0 107:-100 108:9 
0 13.47725204918344 1:0 2:-171 3:248 4:0 5:-132 6:-54 7:0 8:-98 9:3 10:0 11:-102 12:8 13:0 14:-171 15:248 16:-1 17:-133 18:-53 19:-1 20:-99 21:4 22:0 23:-102 24:8 25:0 26:-171 27:248 28:-2 29:-134 30:-49 31:-1 32:-99 33:6 34:0 35:-102 36:8 37:0 38:-171 39:248 40:0 41:-136 42:-43 43:0 44:-99 45:6 46:0 47:-102 48:8 49:0 50:-171 51:248 52:0 53:-137 54:-39 55:1 56:-96 57:5 58:0 59:-102 60:8 61:0 62:-171 63:248 64:0 65:-138 66:-35 67:1 68:-94 69:4 70:0 71:-102 72:8 73:0 74:-171 75:248 76:-3 77:-138 78:-31 79:0 80:-94 81:4 82:0 83:-102 84:8 85:0 86:-171 87:248 88:-5 89:-138 90:-27 91:-1 92:-96 93:4 94:0 95:-102 96:8 97:0 98:-171 99:248 100:0 101:-138 102:-24 103:-1 104:-96 105:3 106:0 107:-102 108:8 
0 22.62741661071777 1:0 2:-171 3:248 4:-2 5:-134 6:-49 7:-1 8:-99 9:6 10:0 11:-102 12:8 13:0 14:-171 15:248 16:0 17:-136 18:-43 19:0 20:-99 21:6 22:0 23:-102 24:8 25:0 26:-171 27:248 28:0 29:-137 30:-39 31:1 32:-96 33:5 34:0 35:-102 36:8 37:0 38:-171 39:248 40:0 41:-138 42:-35 43:1 44:-94 45:4 46:0 47:-102 48:8 49:0 50:-171 51:248 52:-3 53:-138 54:-31 55:0 56:-94 57:4 58:0 59:-102 60:8 61:0 62:-171 63:248 64:-5 65:-138 66:-27 67:-1 68:-96 69:4 70:0 71:-102 72:8 73:0 74:-171 75:248 76:0 77:-138 78:-24 79:-1 80:-96 81:3 82:0 83:-102 84:8 85:1 86:-171 87:247 88:-2 89:-138 90:-22 91:0 92:-95 93:3 94:0 95:-102 96:9 97:1 98:-170 99:246 100:0 101:-138 102:-18 103:0 104:-94 105:4 106:0 107:-102 108:10 
0 22.62741661071777 1:1 2:-171 3:247 4:-2 5:-138 6:-22 7:0 8:-95 9:3 10:0 11:-102 12:9 13:1 14:-170 15:246 16:0 17:-138 18:-18 19:0 20:-94 21:4 22:0 23:-102 24:10 25:1 26:-170 27:245 28:0 29:-139 30:-14 31:0 32:-93 33:4 34:0 35:-102 36:11 37:1 38:-170 39:245 40:-1 41:-139 42:-11 43:0 44:-94 45:6 46:0 47:-102 48:11 49:0 50:-170 51:245 52:0 53:-139 54:-10 55:0 56:-94 57:5 58:0 59:-102 60:11 61:0 62:-170 63:245 64:0 65:-139 66:-12 67:0 68:-94 69:5 70:0 71:-102 72:11 73:0 74:-170 75:245 76:2 77:-139 78:-12 79:1 80:-94 81:6 82:0 83:-102 84:11 85:0 86:-170 87:245 88:1 89:-139 90:-12 91:1 92:-94 93:6 94:0 95:-102 96:11 97:0 98:-170 99:245 100:0 101:-139 102:-12 103:0 104:-94 105:6 106:0 107:-102 108:11 
0 22.62741661071777 1:0 2:-170 3:245 4:1 5:-139 6:-12 7:1 8:-94 9:6 10:0 11:-102 12:11 13:0 14:-170 15:245 16:0 17:-139 18:-12 19:0 20:-94 21:6 22:0 23:-102 24:11 25:0 26:-170 27:245 28:0 29:-139 30:-12 31:1 32:-93 33:7 34:0 35:-102 36:11 37:0 38:-170 39:245 40:0 41:-139 42:-12 43:0 44:-92 45:8 46:0 47:-102 48:11 49:0 50:-170 51:245 52:0 53:-139 54:-12 55:0 56:-92 57:8 58:0 59:-102 60:11 61:0 62:-170 63:245 64:0 65:-134 66:-13 67:-1 68:-92 69:8 70:0 71:-102 72:11 73:0 74:-170 75:245 76:0 77:-132 78:-13 79:-1 80:-92 81:9 82:0 83:-102 84:11 85:0 86:-170 87:245 88:0 89:-130 90:-13 91:-1 92:-92 93:10 94:0 95:-102 96:11 97:0 98:-170 99:245 100:0 101:-130 102:-15 103:-1 104:-91 105:10 106:0 107:-102 108:11 
0 13.60199382133942 1:0 2:-170 3:245 4:0 5:-139 6:-12 7:0 8:-92 9:8 10:0 11:-102 12:11 13:0 14:-170 15:245 16:0 17:-139 18:-12 19:0 20:-92 21:8 22:0 23:-102 24:11 25:0 26:-170 27:245 28:0 29:-134 30:-13 31:-1 32:-92 33:8 34:0 35:-102 36:11 37:0 38:-170 39:245 40:0 41:-132 42:-13 43:-1 44:-92 45:9 46:0 47:-102 48:11 49:0 50:-170 51:245 52:0 53:-130 54:-13 55:-1 56:-92 57:10 58:0 59:-102 60:11 61:0 62:-170 63:245 64:0 65:-130 66:-15 67:-1 68:-91 69:10 70:0 71:-102 72:11 73:0 74:-170 75:245 76:2 77:-130 78:-21 79:0 80:-92 81:10 82:0 83:-102 84:11 85:0 86:-170 87:245 88:3 89:-128 90:-27 91:0 92:-92 93:10 94:0 95:-102 96:11 97:0 98:-170 99:245 100:2 101:-125 102:-34 103:0 104:-92 105:10 106:0 107:-102 108:11 
0 13.37807544707273 1:0 2:-170 3:245 4:-1 5:-134 6:-15 7:-2 8:-91 9:6 10:0 11:-102 12:11 13:0 14:-169 15:245 16:-2 17:-133 18:-13 19:-2 20:-92 21:6 22:0 23:-102 24:11 25:0 26:-168 27:244 28:-1 29:-133 30:-13 31:0 32:-92 33:6 34:-1 35:-102 36:11 37:-1 38:-167 39:244 40:-1 41:-133 42:-13 43:0 44:-92 45:6 46:-1 47:-102 48:10 49:-1 50:-167 51:244 52:-1 53:-133 54:-13 55:0 56:-92 57:5 58:-1 59:-102 60:9 61:-1 62:-166 63:245 64:-1 65:-132 66:-14 67:0 68:-92 69:5 70:-1 71:-102 72:8 73:0 74:-166 75:245 76:0 77:-131 78:-15 79:-1 80:-92 81:5 82:0 83:-102 84:8 85:0 86:-165 87:245 88:0 89:-131 90:-15 91:-1 92:-92 93:4 94:0 95:-102 96:8 97:0 98:-165 99:244 100:0 101:-132 102:-15 103:0 104:-92 105:4 106:0 107:-102 108:8 
0 7.76860932231905 1:0 2:-166 3:242 4:0 5:-132 6:-15 7:0 8:-91 9:7 10:0 11:-100 12:8 13:0 14:-165 15:241 16:2 17:-129 18:-16 19:1 20:-91 21:7 22:0 23:-99 24:7 25:0 26:-164 27:240 28:2 29:-127 30:-17 31:1 32:-90 33:9 34:0 35:-99 36:7 37:1 38:-163 39:239 40:0 41:-129 42:-19 43:1 44:-90 45:10 46:0 47:-98 48:7 49:0 50:-162 51:238 52:0 53:-130 54:-19 55:0 56:-89 57:10 58:1 59:-97 60:6 61:1 62:-162 63:237 64:0 65:-132 66:-19 67:1 68:-89 69:11 70:1 71:-97 72:7 73:2 74:-161 75:235 76:1 77:-132 78:-19 79:1 80:-90 81:13 82:1 83:-96 84:7 85:2 86:-162 87:233 88:1 89:-132 90:-19 91:1 92:-90 93:14 94:2 95:-96 96:7 97:2 98:-162 99:231 100:1 101:-131 102:-18 103:1 104:-89 105:15 106:1 107:-96 108:8 
2.70477312266263 0 1:1 2:-161 3:215 4:1 5:-133 6:-20 7:1 8:-88 9:-1 10:1 11:-95 12:6 13:0 14:-161 15:214 16:0 17:-134 18:-21 19:1 20:-87 21:-2 22:1 23:-94 24:4 25:1 26:-161 27:213 28:1 29:-134 30:-23 31:2 32:-87 33:-3 34:1 35:-94 36:5 37:0 38:-162 39:212 40:0 41:-135 42:-23 43:2 44:-86 45:-5 46:1 47:-94 48:4 49:0 50:-162 51:211 52:0 53:-135 54:-24 55:2 56:-87 57:-7 58:1 59:-94 60:4 61:1 62:-162 63:210 64:0 65:-135 66:-26 67:1 68:-87 69:-7 70:0 71:-94 72:5 73:0 74:-162 75:210 76:0 77:-135 78:-29 79:0 80:-86 81:-8 82:0 83:-93 84:4 85:0 86:-162 87:210 88:0 89:-135 90:-33 91:0 92:-85 93:-7 94:0 95:-93 96:3 97:0 98:-162 99:210 100:0 101:-136 102:-37 103:-1 104:-84 105:-8 106:0 107:-92 108:2 
0 1.080349374241246 1:1 2:-158 3:201 4:-1 5:-119 6:-32 7:0 8:-82 9:-7 10:0 11:-90 12:4 13:2 14:-158 15:201 16:1 17:-117 18:-28 19:0 20:-82 21:-7 22:0 23:-90 24:4 25:1 26:-158 27:201 28:0 29:-117 30:-25 31:0 32:-83 33:-7 34:0 35:-90 36:4 37:1 38:-158 39:200 40:1 41:-117 42:-23 43:0 44:-83 45:-6 46:1 47:-90 48:6 49:1 50:-157 51:199 52:1 53:-117 54:-16 55:0 56:-82 57:-5 58:1 59:-90 60:7 61:0 62:-156 63:199 64:0 65:-118 66:-9 67:1 68:-82 69:-4 70:1 71:-90 72:8 73:0 74:-156 75:199 76:0 77:-118 78:-7 79:-1 80:-82 81:-3 82:1 83:-90 84:9 85:0 86:-156 87:199 88:0 89:-119 90:-5 91:0 92:-81 93:-2 94:0 95:-90 96:9 97:0 98:-156 99:199 100:1 101:-119 102:-4 103:0 104:-81 105:-2 106:0 107:-90 108:8 
0 5.133057521202628 1:-1 2:-176 3:230 4:0 5:-158 6:-13 7:0 8:-95 9:5 10:0 11:-106 12:14 13:0 14:-176 15:231 16:0 17:-160 18:-10 19:1 20:-95 21:4 22:0 23:-106 24:13 25:0 26:-177 27:231 28:-1 29:-163 30:-7 31:0 32:-96 33:5 34:-1 35:-106 36:13 37:0 38:-177 39:231 40:-2 41:-163 42:-4 43:-1 44:-96 45:5 46:-1 47:-106 48:13 49:0 50:-177 51:231 52:0 53:-163 54:-1 55:-1 56:-95 57:5 58:-1 59:-107 60:13 61:0 62:-178 63:230 64:0 65:-161 66:-1 67:0 68:-95 69:5 70:-1 71:-107 72:13 73:0 74:-178 75:230 76:0 77:-160 78:0 79:0 80:-95 81:6 82:0 83:-107 84:13 85:0 86:-178 87:230 88:0 89:-159 90:1 91:0 92:-95 93:6 94:0 95:-107 96:13 97:0 98:-178 99:230 100:0 101:-159 102:1 103:0 104:-95 105:7 106:0 107:-107 108:13 
6.89076544755721 0 1:0 2:-176 3:232 4:0 5:-166 6:-14 7:-1 8:-96 9:9 10:0 11:-104 12:11 13:0 14:-176 15:232 16:-4 17:-165 18:-20 19:1 20:-97 21:9 22:0 23:-104 24:11 25:0 26:-176 27:232 28:-5 29:-164 30:-26 31:0 32:-96 33:9 34:0 35:-104 36:11 37:0 38:-176 39:232 40:-2 41:-161 42:-31 43:0 44:-95 45:8 46:0 47:-104 48:11 49:0 50:-176 51:232 52:-2 53:-157 54:-37 55:0 56:-96 57:9 58:0 59:-104 60:11 61:0 62:-176 63:232 64:-2 65:-152 66:-42 67:0 68:-96 69:9 70:0 71:-104 72:11 73:0 74:-176 75:232 76:-3 77:-145 78:-43 79:1 80:-96 81:10 82:0 83:-104 84:11 85:0 86:-176 87:232 88:-2 89:-140 90:-43 91:0 92:-97 93:9 94:0 95:-104 96:11 97:0 98:-176 99:232 100:-2 101:-139 102:-41 103:-1 104:-96 105:10 106:0 107:-104 108:11 
0 2.309505284958078 1:0 2:-176 3:232 4:-4 5:-165 6:-20 7:1 8:-97 9:9 10:0 11:-104 12:11 13:0 14:-176 15:232 16:-5 17:-164 18:-26 19:0 20:-96 21:9 22:0 23:-104 24:11 25:0 26:-176 27:232 28:-2 29:-161 30:-31 31:0 32:-95 33:8 34:0 35:-104 36:11 37:0 38:-176 39:232 40:-2 41:-157 42:-37 43:0 44:-96 45:9 46:0 47:-104 48:11 49:0 50:-176 51:232 52:-2 53:-152 54:-42 55:0 56:-96 57:9 58:0 59:-104 60:11 61:0 62:-176 63:232 64:-3 65:-145 66:-43 67:1 68:-96 69:10 70:0 71:-104 72:11 73:0 74:-176 75:232 76:-2 77:-140 78:-43 79:0 80:-97 81:9 82:0 83:-104 84:11 85:0 86:-176 87:232 88:-2 89:-139 90:-41 91:-1 92:-96 93:10 94:0 95:-104 96:11 97:0 98:-176 99:232 100:-1 101:-138 102:-39 103:-1 104:-96 105:10 106:0 107:-104 108:11 
1.695954930033799 0 1:0 2:-176 3:232 4:-2 5:-139 6:-41 7:-1 8:-96 9:10 10:0 11:-104 12:11 13:0 14:-176 15:232 16:-1 17:-138 18:-39 19:-1 20:-96 21:10 22:0 23:-104 24:11 25:0 26:-176 27:232 28:-3 29:-135 30:-39 31:-1 32:-96 33:10 34:0 35:-104 36:11 37:0 38:-176 39:232 40:-1 41:-132 42:-41 43:0 44:-96 45:10 46:0 47:-104 48:11 49:0 50:-176 51:232 52:0 53:-131 54:-42 55:-1 56:-95 57:10 58:0 59:-104 60:11 61:0 62:-176 63:232 64:0 65:-131 66:-42 67:-1 68:-95 69:10 70:0 71:-104 72:11 73:0 74:-176 75:232 76:0 77:-131 78:-42 79:1 80:-95 81:11 82:0 83:-104 84:11 85:0 86:-176 87:232 88:0 89:-131 90:-42 91:2 92:-96 93:11 94:0 95:-104 96:11 97:0 98:-176 99:232 100:0 101:-132 102:-42 103:2 104:-96 105:11 106:0 107:-104 108:11 
0 2.263233734810799 1:0 2:-176 3:232 4:-2 5:-147 6:-45 7:0 8:-98 9:7 10:0 11:-104 12:11 13:0 14:-176 15:232 16:-3 17:-145 18:-46 19:0 20:-98 21:7 22:0 23:-104 24:11 25:0 26:-176 27:232 28:0 29:-144 30:-46 31:0 32:-97 33:8 34:0 35:-104 36:11 37:0 38:-176 39:232 40:-1 41:-143 42:-46 43:-1 44:-96 45:9 46:0 47:-104 48:11 49:1 50:-177 51:233 52:0 53:-143 54:-47 55:1 56:-96 57:7 58:0 59:-104 60:9 61:-1 62:-177 63:232 64:0 65:-142 66:-45 67:0 68:-97 69:8 70:0 71:-104 72:11 73:0 74:-177 75:232 76:0 77:-142 78:-45 79:2 80:-97 81:9 82:0 83:-104 84:11 85:0 86:-177 87:232 88:0 89:-142 90:-45 91:0 92:-97 93:9 94:0 95:-104 96:11 97:0 98:-177 99:232 100:0 101:-142 102:-45 103:0 104:-96 105:11 106:0 107:-104 108:11 
0 3.028620112052458 1:0 2:-176 3:232 4:-3 5:-145 6:-46 7:0 8:-98 9:7 10:0 11:-104 12:11 13:0 14:-176 15:232 16:0 17:-144 18:-46 19:0 20:-97 21:8 22:0 23:-104 24:11 25:0 26:-176 27:232 28:-1 29:-143 30:-46 31:-1 32:-96 33:9 34:0 35:-104 36:11 37:1 38:-177 39:233 40:0 41:-143 42:-47 43:1 44:-96 45:7 46:0 47:-104 48:9 49:-1 50:-177 51:232 52:0 53:-142 54:-45 55:0 56:-97 57:8 58:0 59:-104 60:11 61:0 62:-177 63:232 64:0 65:-142 66:-45 67:2 68:-97 69:9 70:0 71:-104 72:11 73:0 74:-177 75:232 76:0 77:-142 78:-45 79:0 80:-97 81:9 82:0 83:-104 84:11 85:0 86:-177 87:232 88:0 89:-142 90:-45 91:0 92:-96 93:11 94:0 95:-104 96:11 97:0 98:-177 99:232 100:1 101:-144 102:-45 103:-1 104:-96 105:12 106:0 107:-104 108:11 
2.715003816868744 22.62741661071777 1:0 2:-176 3:231 4:-3 5:-154 6:-34 7:0 8:-95 9:7 10:0 11:-104 12:12 13:0 14:-176 15:231 16:-4 17:-151 18:-41 19:0 20:-95 21:7 22:0 23:-104 24:12 25:0 26:-176 27:231 28:-4 29:-146 30:-44 31:0 32:-95 33:7 34:0 35:-104 36:12 37:0 38:-176 39:231 40:-3 41:-142 42:-45 43:0 44:-95 45:7 46:0 47:-104 48:12 49:0 50:-176 51:231 52:-1 53:-140 54:-45 55:0 56:-96 57:7 58:0 59:-104 60:12 61:0 62:-176 63:231 64:0 65:-140 66:-44 67:0 68:-98 69:8 70:0 71:-104 72:12 73:0 74:-176 75:231 76:1 77:-140 78:-43 79:0 80:-98 81:8 82:0 83:-104 84:12 85:0 86:-176 87:231 88:0 89:-140 90:-43 91:1 92:-98 93:9 94:0 95:-104 96:12 97:0 98:-176 99:231 100:0 101:-140 102:-43 103:0 104:-97 105:11 106:0 107:-104 108:12 
0 3.979401862258003 1:0 2:-175 3:231 4:0 5:-103 6:-7 7:0 8:-92 9:9 10:0 11:-104 12:11 13:0 14:-175 15:231 16:0 17:-103 18:-7 19:1 20:-93 21:9 22:0 23:-104 24:11 25:0 26:-175 27:231 28:0 29:-105 30:-8 31:0 32:-94 33:9 34:0 35:-104 36:11 37:0 38:-175 39:231 40:1 41:-109 42:-11 43:0 44:-94 45:9 46:0 47:-104 48:11 49:0 50:-175 51:231 52:0 53:-111 54:-15 55:0 56:-93 57:9 58:0 59:-104 60:11 61:0 62:-175 63:231 64:1 65:-115 66:-17 67:0 68:-93 69:9 70:0 71:-104 72:11 73:0 74:-175 75:231 76:1 77:-121 78:-18 79:0 80:-94 81:9 82:0 83:-104 84:11 85:0 86:-175 87:231 88:0 89:-129 90:-18 91:0 92:-94 93:9 94:0 95:-104 96:11 97:0 98:-175 99:231 100:0 101:-135 102:-18 103:-1 104:-94 105:8 106:0 107:-104 108:11 
0 4.74839703298571 1:0 2:-175 3:231 4:0 5:-148 6:-19 7:0 8:-94 9:6 10:0 11:-104 12:11 13:0 14:-175 15:231 16:-2 17:-150 18:-17 19:0 20:-94 21:6 22:0 23:-104 24:11 25:0 26:-175 27:231 28:-1 29:-154 30:-13 31:0 32:-94 33:6 34:0 35:-104 36:11 37:0 38:-175 39:231 40:-4 41:-157 42:-10 43:0 44:-94 45:6 46:0 47:-104 48:11 49:0 50:-175 51:231 52:-1 53:-159 54:-7 55:2 56:-94 57:6 58:-2 59:-104 60:11 61:0 62:-175 63:231 64:0 65:-159 66:-6 67:1 68:-94 69:6 70:0 71:-104 72:11 73:0 74:-175 75:231 76:0 77:-158 78:-6 79:0 80:-94 81:6 82:0 83:-104 84:11 85:0 86:-175 87:231 88:-1 89:-158 90:-6 91:-2 92:-94 93:7 94:-2 95:-104 96:11 97:0 98:-175 99:231 100:-1 101:-158 102:-6 103:-1 104:-94 105:8 106:0 107:-104 108:11 
0.6719645824943724 0 1:0 2:-175 3:229 4:0 5:-163 6:-14 7:0 8:-94 9:24 10:0 11:-106 12:13 13:0 14:-175 15:229 16:0 17:-162 18:-18 19:0 20:-94 21:24 22:0 23:-106 24:13 25:0 26:-175 27:229 28:-1 29:-161 30:-23 31:0 32:-94 33:24 34:0 35:-106 36:13 37:0 38:-175 39:229 40:0 41:-159 42:-29 43:0 44:-93 45:24 46:0 47:-106 48:13 49:0 50:-175 51:229 52:0 53:-157 54:-34 55:0 56:-94 57:24 58:0 59:-106 60:13 61:0 62:-175 63:229 64:-1 65:-152 66:-41 67:0 68:-94 69:24 70:0 71:-106 72:13 73:0 74:-175 75:229 76:-2 77:-147 78:-44 79:0 80:-94 81:24 82:0 83:-106 84:13 85:-1 86:-177 87:231 88:-2 89:-143 90:-46 91:0 92:-94 93:22 94:0 95:-106 96:11 97:0 98:-177 99:232 100:0 101:-141 102:-47 103:0 104:-93 105:22 106:0 107:-106 108:10 
0 3.869905779302272 1:3 2:-162 3:265 4:3 5:-87 6:5 7:2 8:-86 9:11 10:3 11:-97 12:7 13:3 14:-162 15:266 16:4 17:-88 18:5 19:2 20:-87 21:11 22:3 23:-97 24:7 25:2 26:-162 27:267 28:3 29:-88 30:4 31:2 32:-89 33:11 34:3 35:-96 36:7 37:2 38:-162 39:267 40:3 41:-88 42:3 43:3 44:-90 45:11 46:4 47:-97 48:7 49:2 50:-163 51:268 52:3 53:-89 54:3 55:3 56:-91 57:12 58:3 59:-98 60:8 61:1 62:-164 63:268 64:5 65:-94 66:0 67:3 68:-91 69:12 70:3 71:-99 72:8 73:1 74:-165 75:268 76:4 77:-98 78:-4 79:3 80:-90 81:13 82:1 83:-100 84:9 85:1 86:-165 87:268 88:1 89:-101 90:-6 91:3 92:-89 93:13 94:1 95:-100 96:9 97:1 98:-165 99:269 100:1 101:-106 102:-6 103:3 104:-90 105:14 106:1 107:-100 108:10 
18.56718888533917 0 1:0 2:-169 3:280 4:-3 5:-143 6:-47 7:0 8:-90 9:9 10:0 11:-100 12:5 13:0 14:-169 15:280 16:-4 17:-140 18:-51 19:0 20:-90 21:8 22:0 23:-100 24:5 25:0 26:-169 27:281 28:-2 29:-140 30:-54 31:0 32:-90 33:7 34:0 35:-100 36:4 37:0 38:-169 39:282 40:0 41:-140 42:-56 43:0 44:-90 45:7 46:0 47:-100 48:3 49:0 50:-169 51:282 52:0 53:-140 54:-57 55:0 56:-90 57:6 58:0 59:-100 60:3 61:1 62:-169 63:283 64:0 65:-140 66:-57 67:0 68:-90 69:10 70:0 71:-100 72:2 73:1 74:-169 75:283 76:0 77:-140 78:-58 79:0 80:-91 81:14 82:0 83:-100 84:2 85:1 86:-169 87:283 88:0 89:-140 90:-58 91:0 92:-91 93:14 94:0 95:-100 96:2 97:1 98:-167 99:283 100:0 101:-138 102:-59 103:0 104:-88 105:14 106:0 107:-97 108:2 
0 0.6953113243559193 1:-1 2:-166 3:274 4:0 5:-95 6:-13 7:0 8:-89 9:22 10:0 11:-99 12:12 13:-1 14:-166 15:274 16:0 17:-97 18:-12 19:0 20:-88 21:22 22:0 23:-99 24:12 25:-1 26:-165 27:274 28:0 29:-97 30:-12 31:0 32:-86 33:23 34:0 35:-99 36:12 37:-1 38:-165 39:276 40:0 41:-98 42:-13 43:0 44:-87 45:21 46:-1 47:-99 48:11 49:-1 50:-166 51:277 52:-1 53:-99 54:-13 55:0 56:-88 57:20 58:-1 59:-99 60:11 61:-3 62:-167 63:278 64:-1 65:-99 66:-13 67:-1 68:-86 69:19 70:-2 71:-99 72:10 73:-2 74:-167 75:280 76:0 77:-100 78:-14 79:-1 80:-84 81:18 82:-1 83:-99 84:9 85:-2 86:-168 87:282 88:-2 89:-99 90:-15 91:-1 92:-85 93:16 94:-2 95:-100 96:8 97:-2 98:-168 99:282 100:-3 101:-98 102:-14 103:-1 104:-86 105:15 106:-2 107:-100 108:8 
0 0.1260733586773304 1:0 2:-171 3:304 4:0 5:-146 6:-60 7:-1 8:-92 9:18 10:0 11:-101 12:5 13:1 14:-171 15:304 16:0 17:-146 18:-60 19:-1 20:-92 21:18 22:1 23:-102 24:4 25:1 26:-171 27:304 28:0 29:-146 30:-60 31:-1 32:-92 33:18 34:1 35:-103 36:4 37:0 38:-171 39:304 40:0 41:-146 42:-61 43:0 44:-93 45:18 46:0 47:-103 48:4 49:-1 50:-171 51:304 52:0 53:-146 54:-61 55:-1 56:-94 57:18 58:0 59:-103 60:4 61:-1 62:-172 63:304 64:0 65:-146 66:-61 67:0 68:-93 69:18 70:0 71:-103 72:4 73:-1 74:-173 75:304 76:0 77:-146 78:-61 79:0 80:-93 81:18 82:0 83:-103 84:4 85:-1 86:-173 87:305 88:-1 89:-147 90:-61 91:0 92:-93 93:18 94:0 95:-103 96:4 97:0 98:-174 99:305 100:0 101:-147 102:-61 103:0 104:-93 105:18 106:0 107:-103 108:4 
7.021501163057769 0 1:0 2:-171 3:304 4:-1 5:-146 6:-58 7:0 8:-91 9:19 10:0 11:-100 12:5 13:0 14:-172 15:304 16:0 17:-146 18:-58 19:0 20:-92 21:19 22:0 23:-101 24:5 25:1 26:-173 27:303 28:0 29:-146 30:-57 31:0 32:-93 33:19 34:0 35:-102 36:5 37:1 38:-173 39:303 40:0 41:-146 42:-57 43:0 44:-92 45:19 46:0 47:-103 48:5 49:1 50:-172 51:303 52:0 53:-146 54:-57 55:0 56:-93 57:18 58:0 59:-103 60:5 61:0 62:-172 63:303 64:0 65:-146 66:-57 67:0 68:-93 69:17 70:0 71:-103 72:5 73:0 74:-172 75:303 76:0 77:-146 78:-57 79:0 80:-92 81:16 82:0 83:-103 84:5 85:0 86:-172 87:303 88:0 89:-146 90:-57 91:0 92:-92 93:16 94:0 95:-103 96:5 97:0 98:-172 99:303 100:0 101:-146 102:-56 103:0 104:-93 105:15 106:0 107:-103 108:5 
1.067555213384996 0 1:0 2:-173 3:302 4:0 5:-135 6:-19 7:0 8:-91 9:19 10:0 11:-102 12:7 13:0 14:-173 15:301 16:0 17:-135 18:-16 19:0 20:-90 21:20 22:0 23:-102 24:8 25:0 26:-172 27:300 28:0 29:-135 30:-15 31:1 32:-90 33:20 34:0 35:-102 36:9 37:0 38:-172 39:299 40:0 41:-133 42:-15 43:0 44:-91 45:20 46:0 47:-102 48:9 49:0 50:-171 51:299 52:-1 53:-132 54:-14 55:0 56:-92 57:20 58:0 59:-102 60:9 61:0 62:-171 63:299 64:0 65:-131 66:-15 67:0 68:-92 69:18 70:0 71:-102 72:9 73:0 74:-171 75:299 76:0 77:-125 78:-16 79:0 80:-91 81:18 82:0 83:-102 84:9 85:0 86:-171 87:300 88:0 89:-116 90:-16 91:0 92:-93 93:16 94:0 95:-102 96:9 97:0 98:-171 99:300 100:0 101:-112 102:-16 103:0 104:-93 105:15 106:0 107:-102 108:8 
0.0388876937089998 0 1:0 2:-172 3:300 4:0 5:-135 6:-15 7:1 8:-90 9:20 10:0 11:-102 12:9 13:0 14:-172 15:299 16:0 17:-133 18:-15 19:0 20:-91 21:20 22:0 23:-102 24:9 25:0 26:-171 27:299 28:-1 29:-132 30:-14 31:0 32:-92 33:20 34:0 35:-102 36:9 37:0 38:-171 39:299 40:0 41:-131 42:-15 43:0 44:-92 45:18 46:0 47:-102 48:9 49:0 50:-171 51:299 52:0 53:-125 54:-16 55:0 56:-91 57:18 58:0 59:-102 60:9 61:0 62:-171 63:300 64:0 65:-116 66:-16 67:0 68:-93 69:16 70:0 71:-102 72:9 73:0 74:-171 75:300 76:0 77:-112 78:-16 79:0 80:-93 81:15 82:0 83:-102 84:8 85:0 86:-171 87:300 88:0 89:-111 90:-15 91:0 92:-93 93:14 94:0 95:-102 96:8 97:0 98:-171 99:300 100:-1 101:-111 102:-14 103:-1 104:-93 105:14 106:0 107:-102 108:8 
0 22.62741661071777 1:2 2:-181 3:261 4:1 5:-137 6:-17 7:4 8:-98 9:-1 10:1 11:-109 12:7 13:2 14:-181 15:262 16:1 17:-140 18:-17 19:4 20:-99 21:2 22:1 23:-109 24:6 25:1 26:-181 27:263 28:0 29:-142 30:-17 31:0 32:-98 33:1 34:1 35:-109 36:7 37:2 38:-181 39:263 40:-2 41:-143 42:-17 43:0 44:-97 45:1 46:1 47:-109 48:7 49:2 50:-181 51:263 52:-3 53:-144 54:-17 55:1 56:-96 57:1 58:0 59:-109 60:7 61:2 62:-181 63:264 64:0 65:-145 66:-17 67:1 68:-97 69:0 70:1 71:-109 72:7 73:1 74:-181 75:264 76:-1 77:-146 78:-16 79:0 80:-96 81:0 82:1 83:-109 84:7 85:1 86:-181 87:264 88:0 89:-146 90:-17 91:0 92:-96 93:0 94:1 95:-109 96:7 97:0 98:-181 99:264 100:-3 101:-145 102:-14 103:1 104:-95 105:0 106:1 107:-109 108:7 
0 13.15751167727485 1:0 2:-179 3:263 4:1 5:-130 6:0 7:-1 8:-93 9:-2 10:0 11:-107 12:9 13:0 14:-180 15:264 16:2 17:-130 18:-1 19:-1 20:-93 21:-2 22:0 23:-107 24:9 25:0 26:-180 27:264 28:1 29:-129 30:-2 31:-2 32:-93 33:-2 34:-1 35:-107 36:8 37:-1 38:-180 39:264 40:0 41:-128 42:-2 43:-2 44:-92 45:-2 46:-1 47:-108 48:8 49:-1 50:-180 51:265 52:0 53:-128 54:-3 55:-1 56:-92 57:-2 58:-1 59:-108 60:7 61:-2 62:-180 63:265 64:0 65:-128 66:-4 67:-1 68:-91 69:-3 70:-2 71:-108 72:7 73:-2 74:-181 75:266 76:0 77:-128 78:-4 79:0 80:-91 81:-3 82:-1 83:-108 84:6 85:-2 86:-180 87:266 88:-1 89:-128 90:-5 91:-2 92:-90 93:-3 94:-2 95:-107 96:6 97:-3 98:-180 99:266 100:-1 101:-128 102:-5 103:-2 104:-90 105:-2 106:-2 107:-107 108:6 
0 2.970736311568523 1:-4 2:-179 3:267 4:-2 5:-128 6:-2 7:-2 8:-90 9:0 10:-3 11:-106 12:6 13:-3 14:-179 15:266 16:-3 17:-128 18:-1 19:-1 20:-90 21:1 22:-3 23:-106 24:6 25:-3 26:-179 27:266 28:-3 29:-129 30:0 31:-4 32:-91 33:2 34:-3 35:-107 36:7 37:-3 38:-179 39:266 40:-2 41:-129 42:0 43:-5 44:-91 45:2 46:-2 47:-107 48:7 49:-2 50:-180 51:265 52:-2 53:-130 54:-2 55:-4 56:-91 57:4 58:-2 59:-108 60:8 61:-2 62:-181 63:266 64:0 65:-130 66:-3 67:-4 68:-92 69:4 70:-1 71:-109 72:8 73:-2 74:-181 75:266 76:0 77:-133 78:-3 79:-1 80:-93 81:4 82:-1 83:-109 84:8 85:-1 86:-181 87:266 88:-8 89:-140 90:0 91:-5 92:-93 93:6 94:-2 95:-109 96:8 97:-2 98:-181 99:267 100:-11 101:-143 102:12 103:-1 104:-93 105:5 106:-2 107:-108 108:7 
0 7.329837041635342 1:-3 2:-179 3:266 4:-3 5:-128 6:-1 7:-1 8:-90 9:1 10:-3 11:-106 12:6 13:-3 14:-179 15:266 16:-3 17:-129 18:0 19:-4 20:-91 21:2 22:-3 23:-107 24:7 25:-3 26:-179 27:266 28:-2 29:-129 30:0 31:-5 32:-91 33:2 34:-2 35:-107 36:7 37:-2 38:-180 39:265 40:-2 41:-130 42:-2 43:-4 44:-91 45:4 46:-2 47:-108 48:8 49:-2 50:-181 51:266 52:0 53:-130 54:-3 55:-4 56:-92 57:4 58:-1 59:-109 60:8 61:-2 62:-181 63:266 64:0 65:-133 66:-3 67:-1 68:-93 69:4 70:-1 71:-109 72:8 73:-1 74:-181 75:266 76:-8 77:-140 78:0 79:-5 80:-93 81:6 82:-2 83:-109 84:8 85:-2 86:-181 87:267 88:-11 89:-143 90:12 91:-1 92:-93 93:5 94:-2 95:-108 96:7 97:-2 98:-180 99:267 100:-3 101:-143 102:11 103:0 104:-95 105:4 106:-2 107:-108 108:7 
0 14.06177514232587 1:0 2:-181 3:269 4:-5 5:-151 6:0 7:-3 8:-100 9:3 10:-1 11:-108 12:6 13:0 14:-181 15:269 16:-3 17:-152 18:-1 19:-2 20:-100 21:3 22:-1 23:-108 24:6 25:0 26:-182 27:269 28:-5 29:-157 30:1 31:0 32:-98 33:3 34:-1 35:-109 36:7 37:0 38:-182 39:269 40:-6 41:-163 42:3 43:3 44:-96 45:0 46:-1 47:-109 48:8 49:0 50:-182 51:270 52:-1 53:-164 54:2 55:1 56:-97 57:-2 58:0 59:-109 60:7 61:0 62:-182 63:270 64:-1 65:-164 66:2 67:0 68:-97 69:-2 70:0 71:-109 72:7 73:0 74:-181 75:270 76:-1 77:-164 78:2 79:1 80:-98 81:-2 82:0 83:-109 84:7 85:0 86:-182 87:271 88:0 89:-162 90:1 91:1 92:-99 93:-3 94:0 95:-109 96:6 97:0 98:-182 99:271 100:0 101:-159 102:0 103:0 104:-100 105:-3 106:0 107:-109 108:6 
0 3.167472400107907 1:0 2:-183 3:272 4:0 5:-157 6:-6 7:0 8:-97 9:-3 10:0 11:-109 12:5 13:0 14:-183 15:272 16:0 17:-157 18:-6 19:0 20:-97 21:-2 22:0 23:-109 24:5 25:0 26:-183 27:272 28:0 29:-159 30:-6 31:0 32:-97 33:-2 34:0 35:-109 36:5 37:0 38:-183 39:272 40:0 41:-161 42:-6 43:0 44:-97 45:-2 46:0 47:-109 48:5 49:0 50:-183 51:272 52:0 53:-161 54:-6 55:0 56:-97 57:-1 58:0 59:-109 60:5 61:0 62:-182 63:271 64:0 65:-160 66:-6 67:1 68:-97 69:-1 70:0 71:-109 72:6 73:0 74:-182 75:271 76:0 77:-160 78:-7 79:0 80:-97 81:0 82:0 83:-109 84:6 85:0 86:-182 87:271 88:0 89:-159 90:-6 91:-1 92:-97 93:1 94:0 95:-109 96:6 97:0 98:-182 99:271 100:0 101:-157 102:-7 103:0 104:-97 105:1 106:0 107:-109 108:6 
0 22.62741661071777 1:0 2:-182 3:271 4:0 5:-160 6:-6 7:1 8:-97 9:-1 10:0 11:-109 12:6 13:0 14:-182 15:271 16:0 17:-160 18:-7 19:0 20:-97 21:0 22:0 23:-109 24:6 25:0 26:-182 27:271 28:0 29:-159 30:-6 31:-1 32:-97 33:1 34:0 35:-109 36:6 37:0 38:-182 39:271 40:0 41:-157 42:-7 43:0 44:-97 45:1 46:0 47:-109 48:6 49:0 50:-182 51:271 52:2 53:-157 54:-6 55:0 56:-97 57:1 58:0 59:-109 60:6 61:0 62:-182 63:271 64:2 65:-156 66:-5 67:-1 68:-97 69:2 70:0 71:-109 72:6 73:0 74:-182 75:271 76:1 77:-154 78:-6 79:-1 80:-97 81:2 82:0 83:-109 84:6 85:1 86:-182 87:270 88:3 89:-152 90:-5 91:0 92:-97 93:3 94:0 95:-109 96:7 97:1 98:-182 99:270 100:3 101:-150 102:-5 103:0 104:-97 105:4 106:1 107:-110 108:8 
0 3.498741221207966 1:-2 2:-180 3:264 4:0 5:-142 6:-11 7:-2 8:-92 9:3 10:-2 11:-107 12:7 13:-3 14:-179 15:264 16:1 17:-143 18:-15 19:-4 20:-92 21:2 22:-4 23:-107 24:6 25:-3 26:-180 27:264 28:0 29:-144 30:-17 31:-3 32:-92 33:2 34:-3 35:-107 36:6 37:-5 38:-180 39:263 40:-2 41:-144 42:-19 43:-4 44:-92 45:5 46:-4 47:-107 48:6 49:-4 50:-181 51:263 52:0 53:-145 54:-26 55:-5 56:-93 57:8 58:-3 59:-108 60:6 61:-3 62:-181 63:262 64:-2 65:-147 66:-31 67:-3 68:-93 69:9 70:-2 71:-108 72:6 73:-2 74:-183 75:262 76:2 77:-151 78:-35 79:-2 80:-94 81:10 82:-3 83:-109 84:7 85:-1 86:-183 87:262 88:1 89:-152 90:-43 91:-1 92:-96 93:10 94:-1 95:-109 96:7 97:-1 98:-183 99:262 100:0 101:-152 102:-54 103:-1 104:-97 105:11 106:-1 107:-110 108:7 
12.21073304298461 6.726013456146651 1:-4 2:-181 3:263 4:0 5:-145 6:-26 7:-5 8:-93 9:8 10:-3 11:-108 12:6 13:-3 14:-181 15:262 16:-2 17:-147 18:-31 19:-3 20:-93 21:9 22:-2 23:-108 24:6 25:-2 26:-183 27:262 28:2 29:-151 30:-35 31:-2 32:-94 33:10 34:-3 35:-109 36:7 37:-1 38:-183 39:262 40:1 41:-152 42:-43 43:-1 44:-96 45:10 46:-1 47:-109 48:7 49:-1 50:-183 51:262 52:0 53:-152 54:-54 55:-1 56:-97 57:11 58:-1 59:-110 60:7 61:-1 62:-183 63:261 64:0 65:-149 66:-61 67:0 68:-97 69:12 70:-1 71:-110 72:8 73:-1 74:-183 75:260 76:-1 77:-146 78:-60 79:0 80:-99 81:13 82:0 83:-110 84:8 85:-1 86:-182 87:259 88:0 89:-145 90:-59 91:0 92:-100 93:15 94:-1 95:-110 96:10 97:-1 98:-181 99:258 100:0 101:-144 102:-59 103:0 104:-100 105:18 106:-1 107:-109 108:11 
0 1.120210273092493 1:0 2:-173 3:232 4:0 5:-96 6:-1 7:0 8:-106 9:9 10:0 11:-99 12:7 13:0 14:-172 15:231 16:0 17:-95 18:-1 19:0 20:-105 21:9 22:0 23:-98 24:8 25:0 26:-171 27:231 28:0 29:-94 30:-1 31:0 32:-104 33:9 34:0 35:-98 36:8 37:0 38:-170 39:231 40:0 41:-93 42:-1 43:0 44:-104 45:9 46:0 47:-97 48:7 49:0 50:-169 51:231 52:0 53:-92 54:-1 55:0 56:-103 57:9 58:0 59:-96 60:7 61:0 62:-168 63:232 64:0 65:-92 66:-2 67:0 68:-102 69:9 70:0 71:-96 72:7 73:0 74:-167 75:232 76:0 77:-91 78:-2 79:0 80:-102 81:9 82:0 83:-95 84:7 85:0 86:-166 87:232 88:0 89:-90 90:-3 91:0 92:-101 93:9 94:0 95:-94 96:7 97:0 98:-165 99:232 100:0 101:-89 102:-3 103:0 104:-100 105:9 106:0 107:-94 108:7 
0 10.47476094334194 1:-1 2:-174 3:234 4:-1 5:-143 6:-72 7:0 8:-112 9:2 10:0 11:-102 12:6 13:-1 14:-174 15:235 16:0 17:-143 18:-73 19:0 20:-112 21:1 22:0 23:-102 24:5 25:0 26:-174 27:235 28:0 29:-143 30:-73 31:0 32:-112 33:1 34:0 35:-102 36:5 37:0 38:-174 39:235 40:0 41:-143 42:-73 43:0 44:-112 45:1 46:0 47:-102 48:5 49:0 50:-174 51:235 52:0 53:-144 54:-73 55:0 56:-112 57:1 58:0 59:-102 60:5 61:0 62:-174 63:235 64:-1 65:-144 66:-73 67:0 68:-112 69:1 70:0 71:-102 72:5 73:0 74:-174 75:235 76:0 77:-144 78:-73 79:0 80:-112 81:1 82:0 83:-102 84:5 85:0 86:-173 87:234 88:0 89:-144 90:-72 91:0 92:-112 93:1 94:0 95:-101 96:5 97:0 98:-173 99:234 100:1 101:-144 102:-72 103:0 104:-112 105:1 106:0 107:-101 108:5 
0 22.62741661071777 1:0 2:-173 3:234 4:1 5:-144 6:-72 7:0 8:-112 9:1 10:0 11:-101 12:5 13:0 14:-173 15:234 16:1 17:-144 18:-72 19:0 20:-112 21:1 22:0 23:-101 24:5 25:0 26:-173 27:234 28:0 29:-144 30:-72 31:0 32:-112 33:1 34:0 35:-101 36:5 37:0 38:-173 39:234 40:0 41:-144 42:-72 43:0 44:-112 45:1 46:0 47:-101 48:5 49:0 50:-173 51:234 52:0 53:-144 54:-72 55:0 56:-112 57:1 58:0 59:-101 60:5 61:0 62:-173 63:234 64:-1 65:-144 66:-73 67:0 68:-112 69:1 70:0 71:-101 72:5 73:0 74:-173 75:234 76:0 77:-143 78:-73 79:0 80:-112 81:1 82:0 83:-101 84:5 85:0 86:-173 87:234 88:-1 89:-143 90:-73 91:0 92:-112 93:1 94:0 95:-101 96:5 97:0 98:-173 99:234 100:0 101:-143 102:-73 103:0 104:-112 105:1 106:0 107:-101 108:5 
0 20.36188069922096 1:0 2:-173 3:234 4:1 5:-144 6:-72 7:0 8:-112 9:1 10:0 11:-101 12:5 13:0 14:-173 15:234 16:0 17:-144 18:-72 19:0 20:-112 21:1 22:0 23:-101 24:5 25:0 26:-173 27:234 28:0 29:-144 30:-72 31:0 32:-112 33:1 34:0 35:-101 36:5 37:0 38:-173 39:234 40:0 41:-144 42:-72 43:0 44:-112 45:1 46:0 47:-101 48:5 49:0 50:-173 51:234 52:-1 53:-144 54:-73 55:0 56:-112 57:1 58:0 59:-101 60:5 61:0 62:-173 63:234 64:0 65:-143 66:-73 67:0 68:-112 69:1 70:0 71:-101 72:5 73:0 74:-173 75:234 76:-1 77:-143 78:-73 79:0 80:-112 81:1 82:0 83:-101 84:5 85:0 86:-173 87:234 88:0 89:-143 90:-73 91:0 92:-112 93:1 94:0 95:-101 96:5 97:0 98:-173 99:234 100:0 101:-143 102:-73 103:0 104:-112 105:1 106:0 107:-101 108:5 
5.691802955094774 1.928928897524689 1:0 2:-169 3:233 4:0 5:-140 6:-64 7:0 8:-89 9:15 10:0 11:-98 12:6 13:0 14:-169 15:233 16:0 17:-140 18:-66 19:0 20:-89 21:15 22:0 23:-98 24:6 25:0 26:-169 27:233 28:0 29:-140 30:-66 31:0 32:-89 33:15 34:0 35:-98 36:6 37:0 38:-169 39:233 40:0 41:-140 42:-66 43:0 44:-89 45:15 46:0 47:-98 48:6 49:0 50:-169 51:233 52:0 53:-140 54:-66 55:0 56:-89 57:15 58:0 59:-98 60:6 61:0 62:-169 63:233 64:0 65:-140 66:-66 67:0 68:-89 69:15 70:0 71:-98 72:6 73:0 74:-169 75:233 76:0 77:-140 78:-66 79:0 80:-89 81:16 82:0 83:-98 84:6 85:0 86:-169 87:233 88:0 89:-140 90:-66 91:0 92:-89 93:16 94:0 95:-98 96:6 97:0 98:-169 99:233 100:0 101:-140 102:-66 103:0 104:-89 105:16 106:0 107:-98 108:6 
0 22.62741661071777 1:0 2:-172 3:244 4:1 5:-147 6:-35 7:0 8:-98 9:1 10:0 11:-104 12:8 13:0 14:-172 15:244 16:0 17:-147 18:-35 19:0 20:-98 21:1 22:0 23:-104 24:8 25:0 26:-172 27:244 28:0 29:-147 30:-35 31:0 32:-98 33:1 34:0 35:-104 36:8 37:0 38:-172 39:244 40:0 41:-147 42:-34 43:0 44:-98 45:1 46:0 47:-104 48:8 49:0 50:-172 51:244 52:0 53:-147 54:-34 55:0 56:-98 57:1 58:0 59:-104 60:9 61:0 62:-172 63:244 64:0 65:-147 66:-34 67:0 68:-98 69:1 70:0 71:-104 72:9 73:0 74:-171 75:244 76:1 77:-148 78:-35 79:0 80:-98 81:1 82:0 83:-104 84:9 85:0 86:-171 87:244 88:0 89:-149 90:-34 91:0 92:-98 93:1 94:0 95:-104 96:9 97:0 98:-171 99:244 100:0 101:-150 102:-34 103:0 104:-98 105:1 106:0 107:-104 108:9 
0 22.62741661071777 1:0 2:-171 3:244 4:0 5:-150 6:-34 7:0 8:-98 9:1 10:0 11:-104 12:9 13:0 14:-171 15:244 16:0 17:-150 18:-34 19:0 20:-98 21:1 22:0 23:-104 24:9 25:0 26:-171 27:244 28:0 29:-150 30:-34 31:0 32:-98 33:1 34:0 35:-104 36:9 37:0 38:-171 39:244 40:-1 41:-150 42:-33 43:0 44:-98 45:1 46:0 47:-104 48:9 49:0 50:-171 51:244 52:-1 53:-149 54:-32 55:0 56:-98 57:1 58:0 59:-104 60:9 61:0 62:-171 63:244 64:0 65:-149 66:-32 67:0 68:-98 69:1 70:0 71:-104 72:9 73:0 74:-171 75:244 76:0 77:-149 78:-33 79:0 80:-98 81:1 82:0 83:-104 84:9 85:0 86:-171 87:244 88:0 89:-149 90:-33 91:0 92:-98 93:1 94:0 95:-104 96:9 97:0 98:-171 99:244 100:0 101:-149 102:-33 103:0 104:-98 105:1 106:0 107:-104 108:8 
0 22.62741661071777 1:0 2:-171 3:244 4:0 5:-150 6:-34 7:0 8:-98 9:1 10:0 11:-104 12:9 13:0 14:-171 15:244 16:0 17:-150 18:-34 19:0 20:-98 21:1 22:0 23:-104 24:9 25:0 26:-171 27:244 28:-1 29:-150 30:-33 31:0 32:-98 33:1 34:0 35:-104 36:9 37:0 38:-171 39:244 40:-1 41:-149 42:-32 43:0 44:-98 45:1 46:0 47:-104 48:9 49:0 50:-171 51:244 52:0 53:-149 54:-32 55:0 56:-98 57:1 58:0 59:-104 60:9 61:0 62:-171 63:244 64:0 65:-149 66:-33 67:0 68:-98 69:1 70:0 71:-104 72:9 73:0 74:-171 75:244 76:0 77:-149 78:-33 79:0 80:-98 81:1 82:0 83:-104 84:9 85:0 86:-171 87:244 88:0 89:-149 90:-33 91:0 92:-98 93:1 94:0 95:-104 96:8 97:0 98:-171 99:244 100:0 101:-149 102:-34 103:-1 104:-98 105:1 106:0 107:-104 108:8 
0 22.62741661071777 1:0 2:-171 3:244 4:-1 5:-150 6:-33 7:0 8:-98 9:1 10:0 11:-104 12:9 13:0 14:-171 15:244 16:-1 17:-149 18:-32 19:0 20:-98 21:1 22:0 23:-104 24:9 25:0 26:-171 27:244 28:0 29:-149 30:-32 31:0 32:-98 33:1 34:0 35:-104 36:9 37:0 38:-171 39:244 40:0 41:-149 42:-33 43:0 44:-98 45:1 46:0 47:-104 48:9 49:0 50:-171 51:244 52:0 53:-149 54:-33 55:0 56:-98 57:1 58:0 59:-104 60:9 61:0 62:-171 63:244 64:0 65:-149 66:-33 67:0 68:-98 69:1 70:0 71:-104 72:8 73:0 74:-171 75:244 76:0 77:-149 78:-34 79:-1 80:-98 81:1 82:0 83:-104 84:8 85:0 86:-171 87:244 88:0 89:-148 90:-34 91:0 92:-98 93:1 94:0 95:-104 96:8 97:1 98:-172 99:244 100:1 101:-146 102:-34 103:0 104:-98 105:0 106:0 107:-104 108:8 
0 22.62741661071777 1:0 2:-171 3:244 4:0 5:-149 6:-33 7:0 8:-98 9:1 10:0 11:-104 12:9 13:0 14:-171 15:244 16:0 17:-149 18:-33 19:0 20:-98 21:1 22:0 23:-104 24:9 25:0 26:-171 27:244 28:0 29:-149 30:-33 31:0 32:-98 33:1 34:0 35:-104 36:8 37:0 38:-171 39:244 40:0 41:-149 42:-34 43:-1 44:-98 45:1 46:0 47:-104 48:8 49:0 50:-171 51:244 52:0 53:-148 54:-34 55:0 56:-98 57:1 58:0 59:-104 60:8 61:1 62:-172 63:244 64:1 65:-146 66:-34 67:0 68:-98 69:0 70:0 71:-104 72:8 73:0 74:-172 75:244 76:1 77:-145 78:-32 79:0 80:-98 81:0 82:0 83:-104 84:8 85:0 86:-172 87:244 88:1 89:-144 90:-27 91:0 92:-98 93:0 94:0 95:-104 96:8 97:0 98:-172 99:244 100:3 101:-141 102:-21 103:0 104:-98 105:0 106:0 107:-104 108:8 
0 5.090818868043081 1:0 2:-170 3:237 4:0 5:-89 6:17 7:0 8:-95 9:10 10:0 11:-100 12:7 13:0 14:-170 15:237 16:0 17:-90 18:16 19:0 20:-95 21:10 22:0 23:-100 24:7 25:0 26:-170 27:236 28:2 29:-111 30:-8 31:0 32:-95 33:10 34:0 35:-100 36:8 37:0 38:-169 39:236 40:2 41:-146 42:-35 43:0 44:-95 45:10 46:0 47:-100 48:8 49:0 50:-169 51:236 52:0 53:-146 54:-36 55:0 56:-95 57:10 58:0 59:-100 60:8 61:0 62:-170 63:237 64:0 65:-146 66:-37 67:0 68:-95 69:10 70:0 71:-100 72:8 73:0 74:-170 75:237 76:0 77:-144 78:-38 79:0 80:-95 81:10 82:0 83:-100 84:7 85:0 86:-169 87:237 88:-1 89:-144 90:-38 91:0 92:-95 93:10 94:0 95:-100 96:7 97:0 98:-168 99:237 100:0 101:-144 102:-38 103:0 104:-95 105:10 106:0 107:-100 108:7 
0 12.92100985985316 1:0 2:-183 3:253 4:0 5:-124 6:-11 7:2 8:-104 9:1 10:-1 11:-107 12:7 13:0 14:-184 15:252 16:0 17:-129 18:-11 19:0 20:-104 21:1 22:0 23:-107 24:7 25:0 26:-184 27:252 28:2 29:-133 30:-12 31:-1 32:-104 33:2 34:0 35:-107 36:7 37:0 38:-184 39:252 40:5 41:-139 42:-14 43:0 44:-104 45:2 46:0 47:-107 48:7 49:0 50:-184 51:252 52:4 53:-145 54:-14 55:-1 56:-104 57:2 58:0 59:-107 60:7 61:0 62:-184 63:252 64:2 65:-147 66:-14 67:0 68:-104 69:3 70:0 71:-107 72:7 73:0 74:-184 75:252 76:2 77:-148 78:-10 79:0 80:-104 81:3 82:0 83:-107 84:7 85:0 86:-184 87:252 88:1 89:-149 90:-9 91:0 92:-104 93:3 94:0 95:-107 96:7 97:0 98:-186 99:253 100:2 101:-154 102:-7 103:0 104:-107 105:3 106:0 107:-110 108:7 
0 1.570961705910505 1:-1 2:-167 3:311 4:0 5:-133 6:-10 7:-3 8:-94 9:1 10:-1 11:-100 12:4 13:-1 14:-167 15:311 16:0 17:-135 18:-9 19:0 20:-94 21:1 22:-1 23:-100 24:4 25:-1 26:-167 27:311 28:0 29:-135 30:-7 31:0 32:-94 33:1 34:-1 35:-101 36:4 37:-1 38:-168 39:312 40:0 41:-136 42:-8 43:-1 44:-94 45:0 46:0 47:-101 48:3 49:-1 50:-168 51:313 52:0 53:-136 54:-9 55:-1 56:-94 57:-1 58:0 59:-101 60:2 61:-1 62:-170 63:315 64:0 65:-136 66:-10 67:0 68:-96 69:-2 70:0 71:-102 72:1 73:0 74:-172 75:316 76:-2 77:-142 78:-11 79:0 80:-96 81:-3 82:0 83:-103 84:0 85:0 86:-173 87:317 88:-2 89:-147 90:-12 91:0 92:-98 93:-3 94:0 95:-104 96:0 97:0 98:-174 99:317 100:0 101:-147 102:-12 103:0 104:-98 105:-3 106:0 107:-104 108:0 
0 0.2986074716573842 1:0 2:-171 3:313 4:-1 5:-131 6:-54 7:0 8:-91 9:13 10:0 11:-102 12:0 13:0 14:-171 15:314 16:0 17:-131 18:-55 19:0 20:-91 21:13 22:0 23:-102 24:0 25:0 26:-171 27:314 28:0 29:-131 30:-55 31:0 32:-91 33:12 34:0 35:-102 36:-1 37:0 38:-171 39:314 40:0 41:-131 42:-53 43:0 44:-91 45:12 46:0 47:-102 48:-1 49:0 50:-171 51:314 52:0 53:-132 54:-48 55:1 56:-91 57:11 58:0 59:-102 60:-1 61:2 62:-171 63:313 64:2 65:-134 66:-42 67:0 68:-91 69:13 70:0 71:-102 72:1 73:0 74:-170 75:312 76:3 77:-135 78:-40 79:0 80:-92 81:13 82:0 83:-102 84:1 85:0 86:-170 87:312 88:4 89:-135 90:-37 91:0 92:-92 93:13 94:0 95:-102 96:1 97:0 98:-171 99:313 100:4 101:-135 102:-34 103:0 104:-92 105:12 106:0 107:-102 108:1 
2.383697497429365 0 1:0 2:-165 3:220 4:0 5:-135 6:-45 7:0 8:-84 9:13 10:0 11:-95 12:4 13:0 14:-165 15:220 16:-4 17:-130 18:-56 19:0 20:-84 21:13 22:0 23:-95 24:4 25:0 26:-165 27:220 28:0 29:-129 30:-56 31:0 32:-84 33:13 34:0 35:-95 36:4 37:0 38:-165 39:220 40:1 41:-129 42:-55 43:0 44:-84 45:13 46:0 47:-95 48:4 49:0 50:-165 51:220 52:3 53:-130 54:-52 55:0 56:-84 57:13 58:0 59:-95 60:4 61:1 62:-164 63:218 64:1 65:-130 66:-45 67:0 68:-85 69:16 70:0 71:-95 72:6 73:1 74:-164 75:217 76:0 77:-129 78:-39 79:0 80:-85 81:17 82:0 83:-95 84:7 85:1 86:-163 87:216 88:1 89:-125 90:-35 91:0 92:-85 93:18 94:0 95:-95 96:8 97:1 98:-163 99:216 100:1 101:-121 102:-32 103:0 104:-85 105:18 106:0 107:-95 108:8 
1.673217659984566 0 1:0 2:-164 3:198 4:-5 5:-137 6:-33 7:0 8:-83 9:5 10:0 11:-94 12:1 13:0 14:-164 15:197 16:-3 17:-137 18:-29 19:0 20:-83 21:6 22:0 23:-94 24:1 25:0 26:-164 27:197 28:0 29:-137 30:-25 31:0 32:-83 33:6 34:0 35:-94 36:2 37:0 38:-164 39:196 40:-1 41:-138 42:-22 43:0 44:-83 45:6 46:0 47:-94 48:2 49:0 50:-164 51:196 52:-1 53:-138 54:-22 55:0 56:-83 57:6 58:0 59:-94 60:2 61:0 62:-164 63:196 64:-1 65:-138 66:-22 67:0 68:-83 69:6 70:0 71:-94 72:2 73:0 74:-164 75:196 76:0 77:-138 78:-25 79:0 80:-83 81:6 82:0 83:-94 84:2 85:0 86:-164 87:196 88:-1 89:-138 90:-28 91:0 92:-83 93:6 94:0 95:-94 96:2 97:0 98:-164 99:197 100:0 101:-138 102:-35 103:0 104:-83 105:6 106:0 107:-94 108:2 
4.465449432588297 0.3154950610705045 1:0 2:-164 3:263 4:-4 5:-125 6:-50 7:0 8:-86 9:7 10:0 11:-97 12:8 13:0 14:-165 15:263 16:0 17:-123 18:-48 19:0 20:-86 21:10 22:0 23:-98 24:8 25:0 26:-166 27:262 28:-1 29:-123 30:-47 31:0 32:-86 33:12 34:0 35:-99 36:9 37:0 38:-168 39:266 40:1 41:-123 42:-51 43:-1 44:-86 45:10 46:0 47:-99 48:6 49:0 50:-168 51:267 52:2 53:-124 54:-53 55:-1 56:-86 57:9 58:0 59:-99 60:4 61:1 62:-168 63:267 64:2 65:-125 66:-55 67:-1 68:-87 69:9 70:0 71:-99 72:4 73:0 74:-167 75:267 76:1 77:-126 78:-51 79:-1 80:-87 81:10 82:-1 83:-99 84:4 85:0 86:-167 87:266 88:2 89:-128 90:-44 91:0 92:-87 93:10 94:-1 95:-99 96:5 97:0 98:-168 99:266 100:2 101:-128 102:-36 103:0 104:-87 105:11 106:-1 107:-99 108:6 
0 6.631424859667662 1:-2 2:-166 3:270 4:0 5:-86 6:4 7:0 8:-88 9:6 10:0 11:-97 12:11 13:-2 14:-166 15:270 16:-4 17:-89 18:-1 19:0 20:-89 21:6 22:0 23:-97 24:11 25:-1 26:-165 27:270 28:-4 29:-93 30:-5 31:0 32:-89 33:5 34:0 35:-97 36:11 37:-1 38:-165 39:270 40:0 41:-94 42:-8 43:-3 44:-88 45:5 46:-1 47:-97 48:11 49:-1 50:-165 51:270 52:-1 53:-99 54:-11 55:-3 56:-87 57:5 58:-1 59:-98 60:11 61:-1 62:-166 63:270 64:0 65:-104 66:-14 67:0 68:-87 69:5 70:-1 71:-98 72:11 73:0 74:-167 75:270 76:1 77:-110 78:-15 79:-4 80:-87 81:4 82:-2 83:-99 84:11 85:0 86:-167 87:271 88:0 89:-117 90:-16 91:-4 92:-88 93:3 94:-1 95:-100 96:11 97:1 98:-168 99:272 100:0 101:-124 102:-18 103:0 104:-88 105:2 106:-1 107:-100 108:10 
0 2.04823867587088 1:-1 2:-168 3:278 4:-2 5:-143 6:-57 7:0 8:-86 9:14 10:0 11:-98 12:3 13:0 14:-168 15:278 16:0 17:-143 18:-58 19:0 20:-87 21:14 22:0 23:-98 24:3 25:0 26:-168 27:278 28:0 29:-143 30:-60 31:0 32:-87 33:15 34:1 35:-99 36:4 37:0 38:-168 39:278 40:0 41:-143 42:-60 43:0 44:-87 45:15 46:0 47:-99 48:4 49:0 50:-168 51:278 52:0 53:-143 54:-59 55:0 56:-87 57:16 58:0 59:-99 60:4 61:0 62:-169 63:277 64:0 65:-143 66:-58 67:1 68:-86 69:17 70:0 71:-99 72:5 73:0 74:-169 75:277 76:0 77:-143 78:-58 79:0 80:-86 81:17 82:0 83:-99 84:5 85:0 86:-169 87:277 88:0 89:-143 90:-58 91:0 92:-87 93:17 94:0 95:-99 96:5 97:0 98:-169 99:277 100:0 101:-142 102:-58 103:0 104:-86 105:17 106:0 107:-99 108:5 
0 22.62741661071777 1:0 2:-169 3:277 4:1 5:-143 6:-57 7:0 8:-86 9:17 10:0 11:-99 12:5 13:1 14:-168 15:278 16:0 17:-143 18:-58 19:-1 20:-87 21:16 22:0 23:-99 24:4 25:0 26:-168 27:278 28:0 29:-143 30:-59 31:-1 32:-87 33:16 34:0 35:-99 36:4 37:0 38:-168 39:278 40:-1 41:-142 42:-59 43:0 44:-87 45:16 46:0 47:-99 48:4 49:0 50:-168 51:278 52:0 53:-142 54:-59 55:0 56:-87 57:16 58:0 59:-99 60:4 61:0 62:-168 63:278 64:0 65:-142 66:-58 67:0 68:-88 69:17 70:0 71:-99 72:4 73:0 74:-168 75:278 76:0 77:-142 78:-58 79:0 80:-88 81:17 82:0 83:-99 84:4 85:0 86:-169 87:278 88:0 89:-142 90:-58 91:0 92:-87 93:17 94:0 95:-99 96:4 97:0 98:-169 99:278 100:1 101:-143 102:-57 103:0 104:-86 105:17 106:0 107:-99 108:4 
0 22.62741661071777 1:-1 2:-173 3:275 4:0 5:-143 6:-62 7:-2 8:-89 9:19 10:0 11:-102 12:2 13:0 14:-173 15:276 16:0 17:-144 18:-63 19:-2 20:-89 21:19 22:0 23:-102 24:2 25:0 26:-174 27:276 28:0 29:-144 30:-63 31:0 32:-89 33:18 34:0 35:-102 36:1 37:0 38:-173 39:276 40:-1 41:-143 42:-64 43:1 44:-89 45:17 46:1 47:-102 48:1 49:0 50:-173 51:276 52:-1 53:-142 54:-64 55:0 56:-88 57:17 58:1 59:-102 60:1 61:0 62:-173 63:275 64:-1 65:-142 66:-63 67:1 68:-87 69:18 70:1 71:-102 72:1 73:0 74:-172 75:274 76:1 77:-142 78:-62 79:6 80:-88 81:20 82:1 83:-102 84:2 85:0 86:-172 87:275 88:-1 89:-142 90:-63 91:6 92:-89 93:19 94:0 95:-102 96:1 97:0 98:-172 99:275 100:0 101:-142 102:-62 103:1 104:-90 105:19 106:0 107:-102 108:1 
0 22.62741661071777 1:0 2:-173 3:277 4:0 5:-143 6:-64 7:0 8:-92 9:19 10:0 11:-102 12:1 13:0 14:-173 15:277 16:0 17:-143 18:-64 19:0 20:-92 21:20 22:0 23:-102 24:1 25:0 26:-173 27:277 28:-1 29:-143 30:-64 31:0 32:-92 33:19 34:0 35:-102 36:1 37:0 38:-173 39:276 40:0 41:-143 42:-63 43:0 44:-92 45:20 46:0 47:-102 48:1 49:0 50:-173 51:276 52:1 53:-143 54:-63 55:0 56:-92 57:20 58:0 59:-102 60:2 61:0 62:-173 63:276 64:0 65:-142 66:-63 67:0 68:-92 69:20 70:0 71:-102 72:2 73:0 74:-173 75:276 76:0 77:-142 78:-63 79:0 80:-92 81:20 82:0 83:-102 84:2 85:0 86:-173 87:277 88:0 89:-143 90:-64 91:0 92:-92 93:19 94:0 95:-102 96:1 97:0 98:-173 99:277 100:0 101:-143 102:-64 103:0 104:-92 105:19 106:0 107:-102 108:0 
0 22.62741661071777 1:0 2:-173 3:277 4:0 5:-143 6:-64 7:0 8:-92 9:19 10:0 11:-102 12:1 13:0 14:-173 15:277 16:0 17:-143 18:-64 19:0 20:-92 21:19 22:0 23:-102 24:0 25:0 26:-173 27:278 28:0 29:-144 30:-65 31:0 32:-92 33:19 34:0 35:-102 36:0 37:0 38:-173 39:278 40:0 41:-144 42:-65 43:0 44:-92 45:18 46:0 47:-102 48:0 49:0 50:-173 51:278 52:0 53:-144 54:-65 55:0 56:-92 57:18 58:0 59:-102 60:0 61:0 62:-172 63:278 64:0 65:-144 66:-65 67:0 68:-92 69:18 70:0 71:-102 72:0 73:0 74:-172 75:278 76:2 77:-143 78:-65 79:0 80:-92 81:18 82:0 83:-102 84:-1 85:0 86:-172 87:278 88:2 89:-143 90:-65 91:0 92:-92 93:18 94:0 95:-102 96:0 97:0 98:-173 99:278 100:0 101:-143 102:-64 103:0 104:-92 105:18 106:0 107:-102 108:0 
0 22.62741661071777 1:0 2:-169 3:276 4:0 5:-143 6:-62 7:0 8:-85 9:15 10:0 11:-98 12:1 13:0 14:-169 15:276 16:0 17:-143 18:-62 19:0 20:-85 21:15 22:0 23:-98 24:1 25:0 26:-169 27:276 28:0 29:-143 30:-62 31:0 32:-85 33:15 34:0 35:-98 36:1 37:0 38:-169 39:276 40:-1 41:-143 42:-63 43:0 44:-85 45:15 46:0 47:-98 48:1 49:0 50:-169 51:276 52:0 53:-142 54:-63 55:0 56:-85 57:15 58:0 59:-98 60:1 61:0 62:-169 63:276 64:0 65:-142 66:-63 67:0 68:-85 69:15 70:0 71:-98 72:1 73:0 74:-169 75:276 76:0 77:-143 78:-63 79:0 80:-85 81:16 82:0 83:-98 84:1 85:0 86:-170 87:276 88:0 89:-144 90:-63 91:-1 92:-86 93:15 94:0 95:-99 96:1 97:0 98:-170 99:277 100:0 101:-144 102:-64 103:0 104:-86 105:15 106:0 107:-99 108:0 
0 22.62741661071777 1:0 2:-171 3:276 4:0 5:-144 6:-62 7:0 8:-87 9:17 10:0 11:-99 12:1 13:0 14:-171 15:276 16:0 17:-144 18:-62 19:0 20:-87 21:17 22:0 23:-99 24:1 25:0 26:-171 27:276 28:0 29:-144 30:-62 31:0 32:-86 33:17 34:0 35:-99 36:1 37:0 38:-171 39:276 40:1 41:-144 42:-62 43:0 44:-86 45:16 46:0 47:-99 48:1 49:0 50:-171 51:276 52:0 53:-144 54:-61 55:0 56:-86 57:16 58:0 59:-99 60:1 61:0 62:-171 63:276 64:0 65:-144 66:-60 67:0 68:-87 69:16 70:0 71:-99 72:1 73:0 74:-171 75:276 76:0 77:-144 78:-60 79:0 80:-87 81:16 82:0 83:-99 84:1 85:0 86:-171 87:276 88:-1 89:-144 90:-61 91:0 92:-87 93:17 94:0 95:-99 96:1 97:0 98:-171 99:276 100:1 101:-143 102:-62 103:0 104:-87 105:17 106:0 107:-99 108:1 
0 7.786380461190698 1:0 2:-171 3:276 4:1 5:-144 6:-61 7:0 8:-87 9:18 10:0 11:-99 12:1 13:1 14:-170 15:275 16:0 17:-144 18:-60 19:0 20:-87 21:18 22:0 23:-99 24:2 25:0 26:-170 27:275 28:0 29:-144 30:-59 31:0 32:-87 33:18 34:0 35:-99 36:2 37:0 38:-170 39:275 40:2 41:-144 42:-57 43:0 44:-87 45:18 46:0 47:-99 48:2 49:0 50:-170 51:275 52:1 53:-142 54:-53 55:0 56:-87 57:18 58:0 59:-99 60:2 61:0 62:-170 63:275 64:0 65:-141 66:-51 67:0 68:-86 69:18 70:0 71:-99 72:2 73:0 74:-170 75:275 76:-2 77:-140 78:-51 79:0 80:-86 81:18 82:0 83:-99 84:2 85:0 86:-170 87:275 88:-3 89:-140 90:-50 91:0 92:-86 93:17 94:0 95:-99 96:2 97:0 98:-170 99:275 100:-4 101:-138 102:-47 103:0 104:-86 105:17 106:0 107:-99 108:2 
2.682073246824708 2.756970769355215 1:1 2:-168 3:268 4:2 5:-141 6:-12 7:-1 8:-91 9:15 10:0 11:-102 12:12 13:-2 14:-169 15:268 16:2 17:-144 18:-16 19:-1 20:-90 21:15 22:0 23:-102 24:12 25:-1 26:-170 27:268 28:0 29:-146 30:-18 31:0 32:-91 33:15 34:0 35:-102 36:12 37:0 38:-169 39:268 40:0 41:-148 42:-20 43:0 44:-91 45:15 46:0 47:-102 48:12 49:2 50:-168 51:268 52:0 53:-149 54:-23 55:0 56:-92 57:15 58:0 59:-102 60:13 61:-1 62:-170 63:269 64:0 65:-149 66:-31 67:0 68:-92 69:14 70:0 71:-102 72:11 73:0 74:-170 75:269 76:0 77:-150 78:-36 79:0 80:-92 81:14 82:0 83:-102 84:11 85:0 86:-170 87:270 88:0 89:-149 90:-40 91:0 92:-92 93:13 94:0 95:-102 96:10 97:0 98:-170 99:270 100:0 101:-149 102:-45 103:0 104:-92 105:13 106:0 107:-102 108:10 
5.224378425566155 0 1:0 2:-171 3:271 4:-2 5:-145 6:-51 7:0 8:-92 9:12 10:0 11:-102 12:9 13:0 14:-171 15:272 16:-1 17:-144 18:-52 19:0 20:-91 21:11 22:0 23:-102 24:8 25:0 26:-172 27:273 28:0 29:-144 30:-54 31:0 32:-91 33:10 34:0 35:-102 36:7 37:0 38:-172 39:273 40:0 41:-144 42:-55 43:0 44:-91 45:10 46:0 47:-102 48:7 49:0 50:-172 51:274 52:0 53:-144 54:-57 55:0 56:-92 57:9 58:0 59:-102 60:6 61:0 62:-172 63:274 64:0 65:-143 66:-57 67:0 68:-92 69:9 70:0 71:-102 72:6 73:0 74:-172 75:273 76:0 77:-143 78:-55 79:0 80:-92 81:10 82:0 83:-102 84:7 85:0 86:-171 87:272 88:1 89:-143 90:-54 91:0 92:-92 93:11 94:0 95:-102 96:9 97:1 98:-170 99:270 100:1 101:-143 102:-52 103:0 104:-92 105:14 106:0 107:-102 108:11 
15.28604069346276 0 1:0 2:-169 3:270 4:0 5:-143 6:-55 7:-1 8:-91 9:13 10:-2 11:-100 12:9 13:0 14:-169 15:271 16:0 17:-143 18:-55 19:0 20:-90 21:12 22:-1 23:-100 24:9 25:0 26:-169 27:271 28:0 29:-143 30:-57 31:0 32:-90 33:12 34:0 35:-100 36:9 37:0 38:-169 39:271 40:0 41:-143 42:-57 43:0 44:-90 45:12 46:0 47:-100 48:9 49:0 50:-169 51:271 52:0 53:-143 54:-58 55:0 56:-90 57:12 58:0 59:-100 60:9 61:0 62:-170 63:271 64:0 65:-143 66:-58 67:0 68:-91 69:12 70:0 71:-100 72:9 73:0 74:-170 75:271 76:0 77:-143 78:-57 79:0 80:-91 81:12 82:1 83:-100 84:8 85:0 86:-170 87:271 88:0 89:-143 90:-56 91:0 92:-91 93:13 94:1 95:-101 96:8 97:0 98:-170 99:270 100:0 101:-143 102:-55 103:0 104:-91 105:13 106:1 107:-101 108:8 
0.5299971101934602 22.62741661071777 1:0 2:-167 3:272 4:0 5:-143 6:-56 7:-1 8:-90 9:13 10:0 11:-97 12:5 13:0 14:-167 15:272 16:1 17:-143 18:-56 19:-1 20:-90 21:14 22:0 23:-97 24:5 25:0 26:-167 27:272 28:1 29:-143 30:-56 31:0 32:-90 33:14 34:0 35:-97 36:5 37:0 38:-168 39:271 40:0 41:-143 42:-55 43:0 44:-90 45:15 46:0 47:-99 48:6 49:0 50:-168 51:271 52:0 53:-143 54:-55 55:0 56:-90 57:16 58:0 59:-99 60:6 61:0 62:-168 63:271 64:0 65:-143 66:-55 67:0 68:-90 69:16 70:0 71:-99 72:6 73:0 74:-168 75:271 76:-1 77:-143 78:-55 79:0 80:-90 81:16 82:0 83:-99 84:6 85:0 86:-168 87:271 88:-1 89:-142 90:-55 91:0 92:-90 93:16 94:0 95:-99 96:6 97:0 98:-168 99:271 100:0 101:-142 102:-55 103:0 104:-90 105:17 106:0 107:-99 108:6 
0 22.62741661071777 1:0 2:-168 3:271 4:-1 5:-142 6:-55 7:0 8:-90 9:16 10:0 11:-99 12:6 13:0 14:-168 15:271 16:0 17:-142 18:-55 19:0 20:-90 21:17 22:0 23:-99 24:6 25:0 26:-168 27:271 28:0 29:-142 30:-55 31:0 32:-90 33:17 34:0 35:-99 36:6 37:0 38:-168 39:271 40:0 41:-142 42:-55 43:0 44:-90 45:17 46:0 47:-99 48:6 49:0 50:-168 51:271 52:0 53:-142 54:-55 55:0 56:-90 57:17 58:0 59:-99 60:6 61:0 62:-168 63:271 64:0 65:-142 66:-55 67:0 68:-90 69:17 70:0 71:-99 72:6 73:0 74:-168 75:271 76:0 77:-142 78:-55 79:0 80:-90 81:17 82:0 83:-99 84:6 85:0 86:-168 87:271 88:1 89:-142 90:-55 91:0 92:-90 93:17 94:0 95:-99 96:6 97:0 98:-168 99:271 100:1 101:-142 102:-55 103:0 104:-90 105:17 106:0 107:-99 108:6 
0 17.30273037371094 1:0 2:-171 3:269 4:0 5:-142 6:-52 7:0 8:-91 9:20 10:0 11:-104 12:9 13:0 14:-171 15:269 16:0 17:-142 18:-52 19:0 20:-91 21:20 22:0 23:-104 24:9 25:0 26:-171 27:269 28:0 29:-142 30:-52 31:0 32:-91 33:20 34:0 35:-104 36:9 37:0 38:-171 39:269 40:0 41:-142 42:-52 43:0 44:-91 45:20 46:0 47:-104 48:9 49:0 50:-171 51:269 52:0 53:-142 54:-52 55:0 56:-91 57:20 58:0 59:-104 60:9 61:0 62:-171 63:269 64:0 65:-142 66:-53 67:0 68:-91 69:20 70:0 71:-104 72:9 73:0 74:-171 75:269 76:0 77:-142 78:-53 79:0 80:-90 81:19 82:0 83:-103 84:8 85:0 86:-169 87:271 88:0 89:-142 90:-54 91:0 92:-90 93:18 94:0 95:-100 96:7 97:0 98:-169 99:271 100:0 101:-142 102:-54 103:0 104:-90 105:18 106:0 107:-100 108:7 
0 22.62741661071777 1:0 2:-171 3:269 4:0 5:-142 6:-52 7:0 8:-91 9:20 10:0 11:-104 12:9 13:0 14:-171 15:269 16:0 17:-142 18:-53 19:0 20:-91 21:20 22:0 23:-104 24:9 25:0 26:-171 27:269 28:0 29:-142 30:-53 31:0 32:-90 33:19 34:0 35:-103 36:8 37:0 38:-169 39:271 40:0 41:-142 42:-54 43:0 44:-90 45:18 46:0 47:-100 48:7 49:0 50:-169 51:271 52:0 53:-142 54:-54 55:0 56:-90 57:18 58:0 59:-100 60:7 61:0 62:-169 63:271 64:0 65:-142 66:-54 67:0 68:-90 69:18 70:0 71:-100 72:7 73:0 74:-169 75:271 76:0 77:-142 78:-54 79:0 80:-90 81:18 82:0 83:-100 84:7 85:0 86:-169 87:271 88:0 89:-142 90:-54 91:0 92:-90 93:18 94:0 95:-100 96:7 97:0 98:-169 99:271 100:0 101:-142 102:-54 103:0 104:-90 105:18 106:0 107:-100 108:7 
0 22.62741661071777 1:0 2:-169 3:271 4:0 5:-142 6:-54 7:0 8:-90 9:18 10:0 11:-100 12:7 13:0 14:-169 15:271 16:0 17:-142 18:-54 19:0 20:-90 21:18 22:0 23:-100 24:7 25:0 26:-169 27:271 28:0 29:-142 30:-54 31:0 32:-90 33:18 34:0 35:-100 36:7 37:0 38:-169 39:271 40:0 41:-142 42:-54 43:0 44:-90 45:18 46:0 47:-100 48:7 49:0 50:-171 51:269 52:-1 53:-142 54:-53 55:0 56:-90 57:19 58:0 59:-103 60:9 61:0 62:-172 63:269 64:0 65:-142 66:-52 67:0 68:-90 69:20 70:0 71:-104 72:9 73:0 74:-172 75:269 76:-1 77:-143 78:-52 79:0 80:-90 81:20 82:0 83:-104 84:9 85:0 86:-172 87:269 88:0 89:-143 90:-52 91:0 92:-90 93:20 94:0 95:-104 96:9 97:0 98:-172 99:269 100:0 101:-143 102:-52 103:0 104:-90 105:20 106:0 107:-104 108:9 
0 9.406361450837771 1:0 2:-170 3:304 4:10 5:-116 6:0 7:2 8:-92 9:8 10:0 11:-102 12:9 13:0 14:-170 15:305 16:10 17:-115 18:5 19:1 20:-92 21:10 22:0 23:-102 24:10 25:0 26:-170 27:306 28:0 29:-115 30:5 31:1 32:-92 33:10 34:0 35:-102 36:9 37:0 38:-170 39:306 40:-1 41:-111 42:3 43:1 44:-92 45:11 46:1 47:-103 48:10 49:1 50:-170 51:307 52:-1 53:-108 54:2 55:1 56:-93 57:12 58:1 59:-104 60:11 61:1 62:-170 63:307 64:0 65:-108 66:2 67:1 68:-93 69:12 70:1 71:-105 72:12 73:1 74:-172 75:309 76:0 77:-111 78:0 79:1 80:-93 81:12 82:1 83:-105 84:11 85:1 86:-173 87:310 88:2 89:-116 90:-1 91:1 92:-93 93:12 94:1 95:-105 96:11 97:1 98:-174 99:311 100:2 101:-119 102:-5 103:1 104:-93 105:11 106:1 107:-105 108:11 
1.124283257552996 22.62741661071777 1:1 2:-170 3:316 4:0 5:-150 6:-54 7:0 8:-91 9:17 10:0 11:-101 12:9 13:0 14:-170 15:316 16:1 17:-147 18:-52 19:0 20:-91 21:17 22:0 23:-101 24:9 25:0 26:-170 27:316 28:1 29:-145 30:-51 31:0 32:-90 33:18 34:0 35:-101 36:9 37:0 38:-170 39:316 40:0 41:-145 42:-51 43:0 44:-90 45:18 46:0 47:-101 48:9 49:0 50:-170 51:316 52:-1 53:-147 54:-52 55:0 56:-89 57:18 58:0 59:-101 60:9 61:0 62:-170 63:315 64:-1 65:-150 66:-53 67:0 68:-87 69:19 70:0 71:-101 72:9 73:0 74:-170 75:315 76:0 77:-150 78:-53 79:0 80:-87 81:19 82:0 83:-101 84:9 85:0 86:-169 87:316 88:-3 89:-150 90:-53 91:0 92:-87 93:18 94:0 95:-100 96:9 97:0 98:-168 99:316 100:-3 101:-151 102:-54 103:0 104:-87 105:18 106:0 107:-98 108:8 
1.900792553095729 19.73843512230931 1:0 2:-170 3:316 4:1 5:-145 6:-51 7:0 8:-90 9:18 10:0 11:-101 12:9 13:0 14:-170 15:316 16:0 17:-145 18:-51 19:0 20:-90 21:18 22:0 23:-101 24:9 25:0 26:-170 27:316 28:-1 29:-147 30:-52 31:0 32:-89 33:18 34:0 35:-101 36:9 37:0 38:-170 39:315 40:-1 41:-150 42:-53 43:0 44:-87 45:19 46:0 47:-101 48:9 49:0 50:-170 51:315 52:0 53:-150 54:-53 55:0 56:-87 57:19 58:0 59:-101 60:9 61:0 62:-169 63:316 64:-3 65:-150 66:-53 67:0 68:-87 69:18 70:0 71:-100 72:9 73:0 74:-168 75:316 76:-3 77:-151 78:-54 79:0 80:-87 81:18 82:0 83:-98 84:8 85:0 86:-167 87:317 88:0 89:-151 90:-55 91:0 92:-86 93:18 94:0 95:-97 96:8 97:0 98:-166 99:317 100:0 101:-150 102:-55 103:0 104:-87 105:18 106:0 107:-96 108:8 
0 4.562725982804764 1:0 2:-170 3:315 4:-1 5:-107 6:-16 7:0 8:-90 9:15 10:0 11:-101 12:8 13:0 14:-169 15:314 16:-1 17:-107 18:-15 19:0 20:-89 21:16 22:0 23:-101 24:10 25:-1 26:-169 27:313 28:-1 29:-107 30:-13 31:0 32:-90 33:17 34:0 35:-101 36:11 37:-1 38:-169 39:312 40:-1 41:-108 42:-12 43:0 44:-89 45:17 46:-1 47:-101 48:12 49:-2 50:-169 51:310 52:-1 53:-109 54:-10 55:0 56:-91 57:18 58:-1 59:-102 60:13 61:-2 62:-170 63:310 64:0 65:-109 66:-9 67:-1 68:-91 69:18 70:-2 71:-103 72:13 73:-2 74:-171 75:311 76:0 77:-109 78:-10 79:-1 80:-91 81:18 82:-2 83:-103 84:12 85:-2 86:-171 87:312 88:-2 89:-108 90:-10 91:-1 92:-89 93:17 94:-2 95:-103 96:11 97:-2 98:-172 99:314 100:-2 101:-107 102:-10 103:-1 104:-89 105:15 106:-2 107:-103 108:10 
0.8827046809785908 0 1:-3 2:-169 3:317 4:-3 5:-103 6:-15 7:-2 8:-90 9:-5 10:-2 11:-102 12:7 13:-3 14:-169 15:319 16:-1 17:-103 18:-16 19:-4 20:-91 21:-6 22:-2 23:-101 24:5 25:-3 26:-169 27:320 28:-2 29:-104 30:-16 31:-8 32:-90 33:-8 34:-3 35:-101 36:4 37:-4 38:-169 39:321 40:-2 41:-105 42:-16 43:-7 44:-90 45:-9 46:-2 47:-101 48:3 49:-3 50:-170 51:321 52:-3 53:-110 54:-16 55:-2 56:-92 57:-8 58:-3 59:-102 60:4 61:-3 62:-170 63:321 64:-3 65:-114 66:-15 67:-4 68:-92 69:-5 70:-3 71:-103 72:4 73:-3 74:-171 75:321 76:-3 77:-114 78:-15 79:-4 80:-92 81:-5 82:-3 83:-104 84:4 85:-2 86:-172 87:321 88:-3 89:-114 90:-15 91:-4 92:-94 93:-5 94:-3 95:-105 96:3 97:-2 98:-172 99:321 100:0 101:-114 102:-15 103:-5 104:-94 105:-7 106:-3 107:-105 108:2 
0 0.322917756450854 1:0 2:-185 3:239 4:0 5:-147 6:-15 7:0 8:-105 9:-1 10:0 11:-109 12:10 13:0 14:-185 15:239 16:0 17:-149 18:-13 19:-1 20:-105 21:3 22:0 23:-109 24:9 25:0 26:-185 27:240 28:0 29:-150 30:-12 31:-2 32:-108 33:7 34:2 35:-108 36:9 37:0 38:-185 39:240 40:1 41:-151 42:-12 43:0 44:-108 45:7 46:1 47:-107 48:8 49:0 50:-184 51:240 52:-1 53:-152 54:-14 55:0 56:-108 57:7 58:1 59:-107 60:8 61:-1 62:-185 63:242 64:0 65:-158 66:-17 67:0 68:-108 69:5 70:0 71:-107 72:6 73:0 74:-186 75:243 76:0 77:-165 78:-18 79:-3 80:-111 81:6 82:-1 83:-108 84:5 85:0 86:-187 87:244 88:0 89:-165 90:-21 91:-3 92:-114 93:8 94:-1 95:-109 96:5 97:1 98:-187 99:243 100:0 101:-166 102:-20 103:0 104:-114 105:8 106:-1 107:-110 108:5 
3.053746048407441 0 1:0 2:-173 3:244 4:0 5:-156 6:-62 7:5 8:-99 9:3 10:0 11:-99 12:5 13:0 14:-171 15:244 16:0 17:-155 18:-62 19:5 20:-99 21:2 22:0 23:-98 24:5 25:0 26:-170 27:244 28:0 29:-155 30:-61 31:0 32:-97 33:1 34:0 35:-97 36:5 37:0 38:-171 39:244 40:0 41:-155 42:-59 43:1 44:-95 45:1 46:1 47:-99 48:5 49:0 50:-171 51:244 52:3 53:-154 54:-55 55:0 56:-93 57:1 58:0 59:-99 60:5 61:0 62:-170 63:244 64:4 65:-152 66:-52 67:-2 68:-92 69:2 70:0 71:-99 72:6 73:1 74:-169 75:242 76:0 77:-151 78:-47 79:-2 80:-91 81:5 82:0 83:-99 84:8 85:0 86:-167 87:242 88:-1 89:-149 90:-45 91:0 92:-89 93:5 94:0 95:-97 96:8 97:0 98:-166 99:242 100:0 101:-148 102:-44 103:0 104:-88 105:5 106:0 107:-96 108:8 
0 1.336393348811924 1:2 2:-161 3:237 4:5 5:-106 6:-16 7:3 8:-89 9:7 10:3 11:-95 12:7 13:4 14:-159 15:237 16:5 17:-109 18:-17 19:6 20:-90 21:7 22:4 23:-95 24:6 25:3 26:-159 27:237 28:4 29:-112 30:-18 31:6 32:-90 33:7 34:5 35:-95 36:6 37:4 38:-160 39:236 40:3 41:-112 42:-19 43:2 44:-89 45:6 46:3 47:-95 48:6 49:3 50:-160 51:236 52:2 53:-114 54:-19 55:2 56:-89 57:5 58:3 59:-96 60:7 61:3 62:-162 63:235 64:0 65:-117 66:-18 67:1 68:-87 69:4 70:1 71:-96 72:8 73:3 74:-162 75:234 76:1 77:-118 78:-17 79:1 80:-86 81:3 82:1 83:-96 84:8 85:1 86:-162 87:234 88:0 89:-118 90:-15 91:2 92:-86 93:3 94:1 95:-96 96:8 97:1 98:-162 99:233 100:0 101:-118 102:-14 103:2 104:-86 105:4 106:0 107:-95 108:8 
0 14.84915601958037 1:-1 2:-163 3:233 4:-1 5:-134 6:-11 7:0 8:-90 9:-4 10:0 11:-97 12:7 13:0 14:-163 15:234 16:-1 17:-134 18:-12 19:0 20:-91 21:-4 22:-1 23:-97 24:7 25:-1 26:-162 27:234 28:0 29:-134 30:-14 31:-1 32:-92 33:-2 34:0 35:-97 36:8 37:-1 38:-163 39:236 40:1 41:-136 42:-18 43:0 44:-92 45:-1 46:0 47:-98 48:7 49:0 50:-164 51:238 52:3 53:-138 54:-22 55:0 56:-92 57:-3 58:0 59:-98 60:7 61:0 62:-165 63:239 64:1 65:-139 66:-26 67:0 68:-93 69:-3 70:0 71:-99 72:7 73:0 74:-165 75:241 76:0 77:-142 78:-32 79:0 80:-93 81:-5 82:0 83:-99 84:5 85:0 86:-165 87:241 88:0 89:-142 90:-39 91:0 92:-93 93:-5 94:0 95:-99 96:5 97:-1 98:-165 99:241 100:0 101:-143 102:-45 103:-1 104:-94 105:-4 106:0 107:-99 108:5 
16.29534927270642 0.8472966513512095 1:2 2:-165 3:254 4:3 5:-135 6:-11 7:1 8:-92 9:11 10:2 11:-101 12:6 13:2 14:-165 15:257 16:3 17:-137 18:-15 19:1 20:-93 21:9 22:3 23:-101 24:5 25:2 26:-166 27:260 28:5 29:-140 30:-21 31:1 32:-94 33:7 34:2 35:-101 36:3 37:1 38:-166 39:262 40:4 41:-143 42:-26 43:2 44:-94 45:6 46:1 47:-101 48:2 49:1 50:-167 51:263 52:3 53:-144 54:-32 55:2 56:-93 57:5 58:1 59:-101 60:2 61:0 62:-167 63:263 64:2 65:-144 66:-37 67:2 68:-93 69:5 70:1 71:-101 72:2 73:1 74:-167 75:263 76:3 77:-144 78:-39 79:1 80:-92 81:5 82:1 83:-101 84:3 85:1 86:-166 87:263 88:3 89:-144 90:-40 91:1 92:-92 93:6 94:1 95:-100 96:4 97:1 98:-166 99:264 100:4 101:-142 102:-43 103:1 104:-92 105:6 106:1 107:-100 108:4 
22.62741661071777 0 1:0 2:-169 3:268 4:0 5:-144 6:-45 7:0 8:-93 9:9 10:0 11:-102 12:4 13:1 14:-169 15:269 16:2 17:-144 18:-45 19:0 20:-93 21:9 22:0 23:-102 24:3 25:1 26:-169 27:270 28:3 29:-139 30:-45 31:0 32:-94 33:9 34:-1 35:-102 36:4 37:0 38:-169 39:271 40:0 41:-139 42:-47 43:0 44:-95 45:9 46:-1 47:-102 48:4 49:1 50:-168 51:272 52:1 53:-137 54:-46 55:0 56:-95 57:9 58:-1 59:-102 60:4 61:0 62:-168 63:272 64:-3 65:-140 66:-48 67:-1 68:-94 69:10 70:-1 71:-102 72:4 73:0 74:-167 75:273 76:-3 77:-143 78:-49 79:-1 80:-95 81:11 82:0 83:-102 84:3 85:0 86:-167 87:274 88:1 89:-142 90:-46 91:-1 92:-95 93:11 94:0 95:-102 96:3 97:0 98:-167 99:274 100:-2 101:-143 102:-46 103:-1 104:-95 105:12 106:0 107:-102 108:3 
1.833904542145242 4.463172193540006 1:2 2:-167 3:280 4:1 5:-133 6:-6 7:1 8:-95 9:15 10:1 11:-103 12:11 13:1 14:-167 15:280 16:0 17:-133 18:-6 19:1 20:-95 21:15 22:1 23:-103 24:11 25:1 26:-166 27:280 28:0 29:-133 30:-6 31:1 32:-94 33:16 34:0 35:-103 36:11 37:1 38:-166 39:280 40:0 41:-133 42:-6 43:1 44:-94 45:17 46:0 47:-103 48:11 49:1 50:-166 51:280 52:-2 53:-133 54:-17 55:0 56:-94 57:18 58:0 59:-103 60:11 61:1 62:-167 63:281 64:-4 65:-140 66:-32 67:0 68:-94 69:18 70:0 71:-103 72:10 73:0 74:-168 75:283 76:-2 77:-147 78:-41 79:1 80:-94 81:17 82:1 83:-103 84:9 85:0 86:-168 87:283 88:0 89:-147 90:-48 91:1 92:-93 93:17 94:1 95:-102 96:8 97:-1 98:-168 99:284 100:0 101:-147 102:-51 103:1 104:-93 105:17 106:1 107:-102 108:7 
1.62395031351078 0 1:0 2:-168 3:285 4:1 5:-147 6:-51 7:0 8:-94 9:13 10:0 11:-102 12:6 13:0 14:-168 15:285 16:1 17:-147 18:-49 19:0 20:-94 21:14 22:0 23:-102 24:6 25:0 26:-167 27:283 28:0 29:-146 30:-48 31:0 32:-94 33:15 34:0 35:-102 36:8 37:0 38:-167 39:283 40:0 41:-145 42:-48 43:0 44:-94 45:15 46:0 47:-102 48:8 49:0 50:-166 51:282 52:0 53:-144 54:-44 55:0 56:-94 57:15 58:0 59:-102 60:9 61:0 62:-166 63:282 64:2 65:-144 66:-40 67:0 68:-94 69:16 70:0 71:-102 72:9 73:0 74:-166 75:281 76:2 77:-143 78:-38 79:0 80:-93 81:17 82:0 83:-102 84:10 85:0 86:-166 87:281 88:1 89:-142 90:-35 91:0 92:-93 93:17 94:0 95:-102 96:10 97:0 98:-166 99:281 100:0 101:-142 102:-32 103:0 104:-93 105:17 106:0 107:-102 108:10 
0 1.804032896325653 1:0 2:-186 3:250 4:0 5:-105 6:-1 7:0 8:-106 9:-4 10:0 11:-108 12:4 13:0 14:-186 15:250 16:0 17:-106 18:-1 19:0 20:-106 21:-3 22:0 23:-108 24:4 25:0 26:-186 27:250 28:0 29:-108 30:-4 31:-1 32:-106 33:-2 34:0 35:-108 36:4 37:0 38:-186 39:250 40:1 41:-109 42:-10 43:-1 44:-106 45:-2 46:0 47:-108 48:4 49:0 50:-186 51:250 52:2 53:-114 54:-15 55:-2 56:-106 57:-3 58:0 59:-108 60:4 61:0 62:-186 63:250 64:0 65:-119 66:-17 67:-1 68:-106 69:-4 70:0 71:-108 72:4 73:0 74:-186 75:250 76:1 77:-124 78:-17 79:-1 80:-109 81:-3 82:0 83:-108 84:4 85:0 86:-186 87:250 88:2 89:-133 90:-17 91:0 92:-109 93:-2 94:0 95:-108 96:4 97:0 98:-186 99:250 100:2 101:-139 102:-18 103:2 104:-109 105:-2 106:0 107:-108 108:4 
0 11.72614802825806 1:0 2:-166 3:251 4:-2 5:-143 6:-22 7:0 8:-86 9:-4 10:0 11:-96 12:4 13:0 14:-167 15:251 16:-2 17:-144 18:-20 19:1 20:-87 21:-4 22:0 23:-97 24:4 25:0 26:-168 27:251 28:0 29:-144 30:-20 31:0 32:-88 33:-4 34:1 35:-98 36:4 37:0 38:-169 39:251 40:1 41:-144 42:-20 43:0 44:-89 45:-3 46:1 47:-99 48:4 49:-1 50:-170 51:250 52:1 53:-143 54:-22 55:0 56:-89 57:-3 58:1 59:-101 60:5 61:0 62:-170 63:250 64:0 65:-143 66:-23 67:0 68:-89 69:-3 70:1 71:-101 72:4 73:0 74:-170 75:250 76:0 77:-143 78:-22 79:0 80:-89 81:-3 82:0 83:-101 84:4 85:0 86:-170 87:250 88:-1 89:-143 90:-21 91:0 92:-89 93:-3 94:0 95:-101 96:4 97:0 98:-170 99:250 100:-1 101:-143 102:-22 103:0 104:-89 105:-3 106:0 107:-101 108:4 
0 16.19294033688363 1:0 2:-169 3:251 4:0 5:-137 6:-14 7:0 8:-88 9:9 10:0 11:-99 12:5 13:0 14:-169 15:251 16:-3 17:-136 18:-14 19:0 20:-89 21:10 22:0 23:-99 24:5 25:0 26:-169 27:251 28:-3 29:-135 30:-15 31:0 32:-88 33:10 34:0 35:-99 36:5 37:0 38:-169 39:251 40:0 41:-135 42:-16 43:0 44:-88 45:10 46:0 47:-99 48:5 49:0 50:-168 51:251 52:2 53:-134 54:-17 55:0 56:-88 57:10 58:0 59:-99 60:5 61:0 62:-167 63:251 64:1 65:-133 66:-20 67:0 68:-88 69:10 70:0 71:-99 72:5 73:0 74:-167 75:251 76:0 77:-132 78:-25 79:0 80:-88 81:10 82:0 83:-99 84:5 85:0 86:-167 87:251 88:-4 89:-134 90:-30 91:0 92:-88 93:10 94:0 95:-99 96:5 97:0 98:-167 99:251 100:-4 101:-133 102:-36 103:0 104:-88 105:10 106:0 107:-99 108:5 
22.62741661071777 11.66639041883494 1:0 2:-168 3:250 4:2 5:-122 6:-41 7:0 8:-88 9:13 10:0 11:-99 12:6 13:0 14:-168 15:250 16:2 17:-121 18:-41 19:0 20:-88 21:13 22:0 23:-99 24:6 25:0 26:-169 27:252 28:0 29:-121 30:-43 31:0 32:-88 33:11 34:0 35:-99 36:4 37:0 38:-169 39:252 40:0 41:-121 42:-43 43:0 44:-88 45:10 46:0 47:-99 48:4 49:0 50:-169 51:252 52:0 53:-121 54:-43 55:0 56:-88 57:10 58:0 59:-99 60:3 61:0 62:-169 63:252 64:-1 65:-121 66:-42 67:0 68:-88 69:9 70:0 71:-99 72:3 73:0 74:-169 75:252 76:-1 77:-122 78:-42 79:0 80:-88 81:8 82:0 83:-99 84:3 85:0 86:-169 87:252 88:0 89:-124 90:-43 91:0 92:-88 93:8 94:0 95:-99 96:3 97:0 98:-169 99:252 100:0 101:-128 102:-44 103:0 104:-88 105:9 106:0 107:-99 108:4 
22.62741661071777 0 1:0 2:-174 3:292 4:2 5:-147 6:-35 7:0 8:-95 9:-6 10:0 11:-105 12:3 13:0 14:-174 15:292 16:0 17:-148 18:-38 19:0 20:-95 21:-6 22:0 23:-105 24:3 25:0 26:-174 27:292 28:0 29:-148 30:-42 31:0 32:-95 33:-6 34:0 35:-105 36:3 37:0 38:-174 39:292 40:-1 41:-148 42:-45 43:0 44:-95 45:-6 46:0 47:-105 48:4 49:0 50:-174 51:292 52:0 53:-147 54:-47 55:0 56:-94 57:-6 58:0 59:-105 60:4 61:0 62:-174 63:291 64:2 65:-147 66:-49 67:0 68:-94 69:-5 70:0 71:-105 72:4 73:0 74:-174 75:291 76:-2 77:-146 78:-51 79:0 80:-94 81:-5 82:0 83:-105 84:5 85:0 86:-174 87:291 88:0 89:-144 90:-53 91:0 92:-94 93:-5 94:0 95:-105 96:5 97:0 98:-174 99:291 100:0 101:-144 102:-54 103:0 104:-95 105:-5 106:0 107:-105 108:5 
1.834694446461846 0 1:0 2:-174 3:290 4:0 5:-143 6:-53 7:0 8:-94 9:-4 10:0 11:-105 12:6 13:0 14:-174 15:290 16:0 17:-143 18:-51 19:0 20:-94 21:-4 22:0 23:-105 24:5 25:0 26:-174 27:291 28:0 29:-143 30:-49 31:0 32:-94 33:-5 34:0 35:-105 36:5 37:0 38:-174 39:291 40:0 41:-144 42:-48 43:0 44:-94 45:-5 46:0 47:-105 48:4 49:0 50:-174 51:291 52:0 53:-145 54:-45 55:0 56:-94 57:-6 58:0 59:-105 60:4 61:0 62:-175 63:292 64:0 65:-146 66:-41 67:0 68:-94 69:-6 70:0 71:-105 72:4 73:0 74:-175 75:292 76:0 77:-147 78:-37 79:0 80:-94 81:-6 82:0 83:-105 84:4 85:0 86:-175 87:292 88:0 89:-148 90:-35 91:0 92:-94 93:-6 94:0 95:-105 96:4 97:0 98:-175 99:292 100:0 101:-148 102:-28 103:0 104:-94 105:-6 106:0 107:-105 108:4 
7.209172566035664 0 1:0 2:-171 3:292 4:0 5:-153 6:-59 7:0 8:-92 9:12 10:0 11:-102 12:1 13:0 14:-171 15:293 16:0 17:-153 18:-60 19:-1 20:-93 21:11 22:0 23:-102 24:0 25:0 26:-172 27:294 28:1 29:-152 30:-60 31:0 32:-94 33:10 34:0 35:-102 36:-1 37:0 38:-172 39:293 40:1 41:-152 42:-58 43:0 44:-94 45:10 46:0 47:-102 48:0 49:0 50:-173 51:293 52:1 53:-151 54:-55 55:0 56:-94 57:11 58:1 59:-103 60:0 61:1 62:-173 63:292 64:1 65:-151 66:-52 67:1 68:-94 69:12 70:0 71:-103 72:1 73:1 74:-172 75:291 76:2 77:-151 78:-51 79:0 80:-93 81:13 82:0 83:-103 84:2 85:1 86:-172 87:290 88:3 89:-152 90:-47 91:0 92:-92 93:13 94:0 95:-103 96:3 97:1 98:-171 99:289 100:2 101:-152 102:-43 103:0 104:-93 105:14 106:0 107:-103 108:4 
0.3328782241076606 0 1:1 2:-172 3:291 4:2 5:-151 6:-51 7:0 8:-93 9:13 10:0 11:-103 12:2 13:1 14:-172 15:290 16:3 17:-152 18:-47 19:0 20:-92 21:13 22:0 23:-103 24:3 25:1 26:-171 27:289 28:2 29:-152 30:-43 31:0 32:-93 33:14 34:0 35:-103 36:4 37:0 38:-172 39:290 40:1 41:-152 42:-42 43:0 44:-92 45:13 46:0 47:-103 48:4 49:0 50:-172 51:291 52:0 53:-152 54:-40 55:0 56:-93 57:12 58:0 59:-103 60:3 61:-1 62:-171 63:291 64:2 65:-152 66:-38 67:0 68:-92 69:11 70:1 71:-102 72:2 73:0 74:-171 75:292 76:2 77:-152 78:-35 79:0 80:-92 81:11 82:1 83:-101 84:3 85:0 86:-170 87:292 88:3 89:-152 90:-30 91:0 92:-92 93:10 94:1 95:-101 96:2 97:0 98:-170 99:292 100:3 101:-152 102:-26 103:1 104:-92 105:10 106:0 107:-101 108:2 
0 22.62741661071777 1:1 2:-168 3:241 4:0 5:-139 6:-19 7:0 8:-91 9:11 10:0 11:-101 12:14 13:0 14:-168 15:241 16:0 17:-139 18:-19 19:0 20:-91 21:12 22:0 23:-102 24:13 25:0 26:-168 27:241 28:0 29:-138 30:-18 31:0 32:-91 33:12 34:0 35:-102 36:12 37:0 38:-168 39:241 40:1 41:-138 42:-18 43:0 44:-92 45:12 46:0 47:-102 48:11 49:0 50:-168 51:241 52:0 53:-139 54:-18 55:0 56:-92 57:12 58:0 59:-102 60:11 61:0 62:-168 63:241 64:1 65:-141 66:-18 67:0 68:-91 69:11 70:0 71:-102 72:11 73:0 74:-169 75:241 76:1 77:-141 78:-18 79:0 80:-91 81:11 82:0 83:-102 84:11 85:0 86:-169 87:241 88:2 89:-141 90:-18 91:1 92:-91 93:11 94:0 95:-102 96:11 97:0 98:-169 99:241 100:4 101:-142 102:-18 103:0 104:-90 105:11 106:0 107:-102 108:11 
0 0.8751345137230945 1:0 2:-169 3:241 4:4 5:-143 6:0 7:0 8:-88 9:9 10:0 11:-102 12:12 13:0 14:-169 15:240 16:0 17:-143 18:0 19:1 20:-89 21:9 22:1 23:-102 24:12 25:0 26:-169 27:240 28:1 29:-145 30:-1 31:-1 32:-89 33:9 34:1 35:-102 36:12 37:0 38:-169 39:241 40:0 41:-149 42:-3 43:0 44:-89 45:9 46:1 47:-101 48:12 49:0 50:-169 51:241 52:-2 53:-151 54:-6 55:0 56:-89 57:9 58:1 59:-101 60:12 61:0 62:-170 63:241 64:-7 65:-153 66:-8 67:0 68:-89 69:8 70:0 71:-101 72:12 73:0 74:-170 75:242 76:-6 77:-154 78:-13 79:1 80:-89 81:7 82:0 83:-101 84:11 85:-2 86:-171 87:244 88:-3 89:-155 90:-20 91:0 92:-89 93:4 94:0 95:-101 96:10 97:0 98:-171 99:243 100:-5 101:-156 102:-24 103:0 104:-90 105:5 106:0 107:-101 108:10 
0.806207178364995 22.62741661071777 1:0 2:-170 3:243 4:-3 5:-156 6:-28 7:-1 8:-90 9:6 10:0 11:-101 12:10 13:0 14:-169 15:243 16:-3 17:-154 18:-32 19:-1 20:-90 21:6 22:-1 23:-101 24:10 25:0 26:-169 27:243 28:-5 29:-151 30:-33 31:-1 32:-89 33:7 34:-1 35:-101 36:11 37:0 38:-169 39:243 40:-3 41:-149 42:-33 43:0 44:-89 45:6 46:0 47:-101 48:11 49:1 50:-170 51:245 52:0 53:-149 54:-34 55:0 56:-89 57:4 58:-2 59:-101 60:8 61:0 62:-170 63:245 64:0 65:-149 66:-34 67:0 68:-89 69:3 70:0 71:-101 72:7 73:0 74:-170 75:245 76:1 77:-149 78:-34 79:1 80:-89 81:2 82:0 83:-101 84:7 85:0 86:-170 87:245 88:0 89:-147 90:-35 91:0 92:-90 93:2 94:0 95:-101 96:7 97:0 98:-170 99:245 100:0 101:-145 102:-35 103:0 104:-90 105:2 106:0 107:-101 108:7 
0 22.62741661071777 1:1 2:-170 3:245 4:0 5:-149 6:-34 7:0 8:-89 9:4 10:-2 11:-101 12:8 13:0 14:-170 15:245 16:0 17:-149 18:-34 19:0 20:-89 21:3 22:0 23:-101 24:7 25:0 26:-170 27:245 28:1 29:-149 30:-34 31:1 32:-89 33:2 34:0 35:-101 36:7 37:0 38:-170 39:245 40:0 41:-147 42:-35 43:0 44:-90 45:2 46:0 47:-101 48:7 49:0 50:-170 51:245 52:0 53:-145 54:-35 55:0 56:-90 57:2 58:0 59:-101 60:7 61:0 62:-170 63:245 64:0 65:-144 66:-33 67:-1 68:-89 69:2 70:0 71:-101 72:7 73:0 74:-170 75:245 76:0 77:-144 78:-33 79:0 80:-89 81:2 82:0 83:-101 84:7 85:-1 86:-170 87:244 88:3 89:-144 90:-32 91:1 92:-89 93:6 94:0 95:-101 96:9 97:0 98:-170 99:244 100:3 101:-145 102:-35 103:-1 104:-89 105:7 106:1 107:-101 108:10 
0 22.62741661071777 1:0 2:-170 3:245 4:0 5:-144 6:-33 7:-1 8:-89 9:2 10:0 11:-101 12:7 13:0 14:-170 15:245 16:0 17:-144 18:-33 19:0 20:-89 21:2 22:0 23:-101 24:7 25:-1 26:-170 27:244 28:3 29:-144 30:-32 31:1 32:-89 33:6 34:0 35:-101 36:9 37:0 38:-170 39:244 40:3 41:-145 42:-35 43:-1 44:-89 45:7 46:1 47:-101 48:10 49:0 50:-170 51:244 52:0 53:-145 54:-35 55:0 56:-89 57:7 58:0 59:-101 60:10 61:0 62:-170 63:244 64:0 65:-144 66:-35 67:0 68:-89 69:7 70:0 71:-101 72:10 73:0 74:-170 75:244 76:0 77:-144 78:-35 79:0 80:-89 81:7 82:0 83:-101 84:10 85:0 86:-170 87:244 88:0 89:-144 90:-35 91:-1 92:-89 93:9 94:0 95:-101 96:10 97:0 98:-170 99:244 100:-3 101:-145 102:-35 103:-1 104:-89 105:12 106:0 107:-101 108:10 
0 22.62741661071777 1:0 2:-170 3:244 4:0 5:-145 6:-32 7:0 8:-89 9:12 10:0 11:-101 12:10 13:0 14:-170 15:244 16:2 17:-145 18:-32 19:0 20:-89 21:10 22:0 23:-101 24:10 25:0 26:-170 27:244 28:3 29:-145 30:-32 31:1 32:-89 33:8 34:0 35:-101 36:10 37:0 38:-170 39:244 40:2 41:-145 42:-31 43:1 44:-89 45:8 46:0 47:-101 48:10 49:0 50:-170 51:244 52:3 53:-146 54:-31 55:0 56:-89 57:7 58:0 59:-101 60:10 61:0 62:-170 63:244 64:3 65:-146 66:-30 67:0 68:-90 69:7 70:0 71:-101 72:10 73:0 74:-170 75:244 76:3 77:-146 78:-28 79:0 80:-90 81:7 82:0 83:-101 84:10 85:0 86:-170 87:244 88:1 89:-145 90:-24 91:0 92:-90 93:7 94:0 95:-101 96:10 97:0 98:-170 99:244 100:3 101:-143 102:-20 103:-1 104:-89 105:7 106:0 107:-101 108:10 
0 4.204307539479191 1:0 2:-169 3:242 4:-3 5:-127 6:-10 7:0 8:-90 9:6 10:0 11:-101 12:11 13:0 14:-169 15:242 16:-6 17:-125 18:-12 19:0 20:-90 21:6 22:0 23:-101 24:11 25:0 26:-169 27:242 28:-2 29:-125 30:-15 31:0 32:-90 33:6 34:0 35:-101 36:11 37:0 38:-169 39:242 40:-2 41:-125 42:-19 43:0 44:-90 45:6 46:0 47:-101 48:11 49:0 50:-169 51:242 52:-3 53:-125 54:-22 55:0 56:-90 57:6 58:0 59:-101 60:11 61:0 62:-169 63:242 64:-2 65:-125 66:-23 67:1 68:-90 69:6 70:0 71:-101 72:11 73:-2 74:-170 75:243 76:-3 77:-124 78:-26 79:0 80:-90 81:6 82:0 83:-101 84:11 85:-1 86:-170 87:243 88:-3 89:-123 90:-29 91:0 92:-90 93:6 94:0 95:-101 96:10 97:-1 98:-170 99:243 100:-3 101:-118 102:-33 103:0 104:-90 105:6 106:2 107:-101 108:10 
0.3613368846772737 0 1:0 2:-169 3:242 4:-2 5:-125 6:-19 7:0 8:-90 9:6 10:0 11:-101 12:11 13:0 14:-169 15:242 16:-3 17:-125 18:-22 19:0 20:-90 21:6 22:0 23:-101 24:11 25:0 26:-169 27:242 28:-2 29:-125 30:-23 31:1 32:-90 33:6 34:0 35:-101 36:11 37:-2 38:-170 39:243 40:-3 41:-124 42:-26 43:0 44:-90 45:6 46:0 47:-101 48:11 49:-1 50:-170 51:243 52:-3 53:-123 54:-29 55:0 56:-90 57:6 58:0 59:-101 60:10 61:-1 62:-170 63:243 64:-3 65:-118 66:-33 67:0 68:-90 69:6 70:2 71:-101 72:10 73:-1 74:-170 75:244 76:-2 77:-117 78:-33 79:0 80:-90 81:5 82:1 83:-101 84:9 85:-1 86:-170 87:244 88:-1 89:-116 90:-32 91:0 92:-90 93:5 94:1 95:-101 96:9 97:-1 98:-170 99:244 100:-1 101:-114 102:-33 103:0 104:-91 105:5 106:0 107:-101 108:9 
0.6779995589576477 0 1:-1 2:-170 3:244 4:-2 5:-117 6:-33 7:0 8:-90 9:5 10:1 11:-101 12:9 13:-1 14:-170 15:244 16:-1 17:-116 18:-32 19:0 20:-90 21:5 22:1 23:-101 24:9 25:-1 26:-170 27:244 28:-1 29:-114 30:-33 31:0 32:-91 33:5 34:0 35:-101 36:9 37:-1 38:-171 39:245 40:-1 41:-114 42:-33 43:0 44:-92 45:5 46:0 47:-101 48:9 49:0 50:-171 51:245 52:0 53:-114 54:-33 55:-2 56:-91 57:4 58:0 59:-101 60:9 61:0 62:-171 63:245 64:0 65:-114 66:-33 67:-1 68:-91 69:4 70:0 71:-101 72:9 73:0 74:-171 75:245 76:0 77:-114 78:-33 79:0 80:-91 81:4 82:0 83:-101 84:9 85:0 86:-171 87:245 88:1 89:-112 90:-32 91:0 92:-91 93:4 94:0 95:-101 96:9 97:0 98:-171 99:245 100:1 101:-111 102:-32 103:0 104:-91 105:4 106:0 107:-101 108:9 
0 2.247272925846364 1:0 2:-170 3:242 4:4 5:-101 6:-4 7:-1 8:-106 9:-4 10:-1 11:-102 12:10 13:0 14:-170 15:242 16:0 17:-101 18:-4 19:-1 20:-112 21:-4 22:-1 23:-102 24:10 25:2 26:-170 27:242 28:0 29:-101 30:-4 31:-2 32:-117 33:-4 34:-2 35:-103 36:10 37:1 38:-171 39:241 40:0 41:-101 42:-4 43:-1 44:-118 45:-3 46:-1 47:-103 48:10 49:0 50:-171 51:241 52:0 53:-101 54:-4 55:0 56:-118 57:-3 58:0 59:-103 60:10 61:0 62:-170 63:241 64:0 65:-101 66:-4 67:0 68:-118 69:-3 70:0 71:-103 72:10 73:0 74:-170 75:241 76:0 77:-101 78:-4 79:0 80:-118 81:-3 82:0 83:-103 84:10 85:0 86:-170 87:241 88:0 89:-101 90:-4 91:0 92:-126 93:-5 94:0 95:-103 96:10 97:0 98:-170 99:241 100:0 101:-101 102:-4 103:2 104:-137 105:-8 106:0 107:-103 108:10 
0 0.07982546890727443 1:0 2:-170 3:245 4:0 5:-89 6:-2 7:-3 8:-126 9:-26 10:0 11:-101 12:7 13:0 14:-170 15:245 16:0 17:-89 18:-2 19:-3 20:-120 21:-24 22:0 23:-101 24:7 25:0 26:-170 27:245 28:1 29:-88 30:-2 31:-2 32:-111 33:-21 34:0 35:-101 36:7 37:0 38:-170 39:245 40:1 41:-88 42:-1 43:-3 44:-102 45:-16 46:0 47:-101 48:7 49:0 50:-170 51:245 52:0 53:-88 54:-1 55:-3 56:-96 57:-12 58:0 59:-101 60:7 61:0 62:-170 63:244 64:0 65:-88 66:-1 67:-4 68:-94 69:-9 70:1 71:-101 72:8 73:0 74:-170 75:244 76:0 77:-88 78:-1 79:-3 80:-93 81:-9 82:0 83:-101 84:8 85:0 86:-170 87:244 88:0 89:-88 90:-1 91:-3 92:-92 93:-9 94:0 95:-101 96:8 97:0 98:-170 99:244 100:0 101:-88 102:-1 103:-1 104:-92 105:-9 106:0 107:-101 108:8 
-6.370423259250392 1.071888790790994 1:0 2:-167 3:219 4:0 5:-140 6:-14 7:1 8:-91 9:7 10:2 11:-100 12:9 13:0 14:-167 15:219 16:0 17:-140 18:-14 19:0 20:-92 21:7 22:2 23:-100 24:9 25:0 26:-168 27:219 28:3 29:-141 30:-19 31:0 32:-91 33:7 34:0 35:-100 36:9 37:0 38:-168 39:220 40:3 41:-141 42:-25 43:0 44:-90 45:6 46:0 47:-100 48:8 49:0 50:-169 51:220 52:2 53:-140 54:-32 55:0 56:-90 57:7 58:0 59:-100 60:8 61:0 62:-169 63:221 64:-1 65:-140 66:-42 67:0 68:-90 69:7 70:0 71:-100 72:8 73:0 74:-168 75:220 76:1 77:-139 78:-46 79:0 80:-91 81:8 82:0 83:-100 84:8 85:0 86:-168 87:220 88:-1 89:-139 90:-46 91:0 92:-91 93:9 94:0 95:-100 96:8 97:0 98:-168 99:220 100:0 101:-140 102:-42 103:-1 104:-91 105:9 106:0 107:-100 108:8 
-2.190068260153797 0 1:0 2:-166 3:223 4:-1 5:-148 6:-14 7:0 8:-87 9:9 10:0 11:-98 12:9 13:0 14:-166 15:224 16:-1 17:-149 18:-17 19:0 20:-86 21:8 22:0 23:-98 24:9 25:0 26:-167 27:224 28:-1 29:-150 30:-22 31:0 32:-87 33:8 34:0 35:-98 36:9 37:1 38:-166 39:224 40:0 41:-152 42:-29 43:0 44:-87 45:8 46:0 47:-98 48:9 49:0 50:-166 51:223 52:0 53:-154 54:-34 55:0 56:-87 57:9 58:0 59:-98 60:9 61:0 62:-166 63:223 64:-2 65:-154 66:-39 67:0 68:-87 69:9 70:0 71:-98 72:10 73:0 74:-165 75:222 76:-2 77:-154 78:-43 79:0 80:-86 81:10 82:0 83:-98 84:11 85:0 86:-165 87:222 88:0 89:-151 90:-43 91:0 92:-86 93:10 94:0 95:-98 96:11 97:-2 98:-165 99:223 100:2 101:-148 102:-44 103:-5 104:-84 105:9 106:-2 107:-97 108:10 
-5.664759191801758 0 1:0 2:-168 3:216 4:4 5:-143 6:-20 7:0 8:-90 9:9 10:0 11:-100 12:5 13:0 14:-168 15:216 16:6 17:-143 18:-22 19:0 20:-90 21:10 22:0 23:-100 24:5 25:0 26:-168 27:216 28:1 29:-143 30:-24 31:0 32:-90 33:10 34:0 35:-100 36:4 37:0 38:-169 39:216 40:1 41:-145 42:-29 43:0 44:-90 45:11 46:-1 47:-100 48:5 49:0 50:-169 51:216 52:2 53:-147 54:-35 55:0 56:-91 57:12 58:-1 59:-101 60:5 61:1 62:-169 63:216 64:2 65:-147 66:-40 67:0 68:-91 69:13 70:-1 71:-101 72:6 73:0 74:-169 75:215 76:1 77:-147 78:-44 79:0 80:-91 81:14 82:-1 83:-102 84:7 85:-1 86:-169 87:214 88:0 89:-145 90:-47 91:0 92:-90 93:15 94:0 95:-102 96:7 97:-1 98:-169 99:214 100:2 101:-143 102:-46 103:0 104:-90 105:17 106:0 107:-102 108:8 
-0 6.831778822109746 1:-1 2:-174 3:288 4:-3 5:-147 6:-19 7:-4 8:-96 9:25 10:-3 11:-106 12:9 13:-2 14:-174 15:288 16:-1 17:-149 18:-21 19:-4 20:-96 21:24 22:-1 23:-106 24:9 25:-2 26:-174 27:289 28:0 29:-154 30:-25 31:0 32:-96 33:24 34:-1 35:-106 36:9 37:-1 38:-174 39:289 40:-2 41:-155 42:-31 43:0 44:-98 45:23 46:-1 47:-106 48:8 49:-2 50:-174 51:289 52:-3 53:-155 54:-43 55:0 56:-98 57:23 58:-1 59:-106 60:8 61:-1 62:-174 63:289 64:-1 65:-153 66:-51 67:0 68:-98 69:23 70:-1 71:-106 72:9 73:-1 74:-174 75:289 76:1 77:-151 78:-51 79:0 80:-98 81:23 82:-1 83:-106 84:9 85:-1 86:-174 87:289 88:0 89:-151 90:-49 91:0 92:-98 93:23 94:-1 95:-106 96:9 97:0 98:-174 99:289 100:1 101:-149 102:-41 103:0 104:-99 105:23 106:0 107:-106 108:8 
-6.34137977137671 0 1:0 2:-173 3:290 4:0 5:-144 6:-14 7:0 8:-100 9:14 10:0 11:-106 12:9 13:0 14:-173 15:290 16:1 17:-146 18:-18 19:0 20:-100 21:14 22:0 23:-106 24:9 25:0 26:-173 27:290 28:0 29:-147 30:-23 31:0 32:-100 33:14 34:0 35:-106 36:9 37:0 38:-174 39:290 40:0 41:-147 42:-27 43:0 44:-100 45:14 46:0 47:-106 48:9 49:0 50:-174 51:289 52:0 53:-146 54:-32 55:0 56:-100 57:14 58:0 59:-106 60:9 61:0 62:-174 63:289 64:0 65:-144 66:-40 67:0 68:-100 69:14 70:0 71:-106 72:9 73:0 74:-174 75:289 76:0 77:-140 78:-45 79:0 80:-100 81:15 82:0 83:-106 84:10 85:0 86:-174 87:289 88:0 89:-136 90:-47 91:0 92:-100 93:15 94:0 95:-106 96:10 97:0 98:-174 99:289 100:0 101:-136 102:-47 103:0 104:-100 105:15 106:0 107:-106 108:10 
-22.62741661071777 0 1:0 2:-163 3:236 4:-5 5:-133 6:-27 7:0 8:-87 9:18 10:0 11:-98 12:6 13:0 14:-163 15:236 16:0 17:-132 18:-32 19:0 20:-87 21:18 22:0 23:-98 24:6 25:0 26:-163 27:237 28:0 29:-132 30:-35 31:0 32:-87 33:18 34:0 35:-98 36:6 37:0 38:-163 39:237 40:0 41:-132 42:-36 43:0 44:-88 45:18 46:0 47:-98 48:5 49:0 50:-165 51:238 52:0 53:-132 54:-38 55:0 56:-87 57:16 58:0 59:-98 60:4 61:0 62:-165 63:238 64:0 65:-131 66:-39 67:0 68:-87 69:16 70:0 71:-98 72:4 73:0 74:-165 75:238 76:0 77:-130 78:-40 79:0 80:-88 81:16 82:0 83:-98 84:4 85:0 86:-165 87:238 88:0 89:-130 90:-40 91:0 92:-87 93:16 94:0 95:-98 96:4 97:0 98:-165 99:238 100:1 101:-130 102:-40 103:0 104:-87 105:16 106:0 107:-98 108:4 
-1.031853737794547 0 1:0 2:-167 3:245 4:0 5:-150 6:-44 7:0 8:-87 9:5 10:0 11:-98 12:-3 13:0 14:-167 15:245 16:-1 17:-149 18:-50 19:0 20:-85 21:5 22:0 23:-98 24:-3 25:0 26:-167 27:245 28:0 29:-147 30:-54 31:0 32:-86 33:4 34:0 35:-98 36:-3 37:0 38:-166 39:246 40:0 41:-147 42:-54 43:0 44:-86 45:3 46:0 47:-98 48:-4 49:0 50:-168 51:246 52:1 53:-147 54:-54 55:0 56:-88 57:3 58:-1 59:-100 60:-2 61:0 62:-169 63:246 64:1 65:-147 66:-54 67:0 68:-88 69:3 70:-1 71:-101 72:-2 73:0 74:-169 75:246 76:0 77:-146 78:-54 79:0 80:-88 81:3 82:0 83:-101 84:-2 85:0 86:-168 87:246 88:1 89:-146 90:-55 91:0 92:-88 93:3 94:0 95:-99 96:-2 97:0 98:-167 99:246 100:1 101:-146 102:-55 103:0 104:-88 105:2 106:0 107:-98 108:-2 
-3.803161589588171 0 1:1 2:-169 3:239 4:1 5:-149 6:-31 7:0 8:-89 9:9 10:0 11:-100 12:3 13:1 14:-170 15:239 16:1 17:-149 18:-36 19:0 20:-89 21:9 22:0 23:-101 24:4 25:2 26:-171 27:240 28:0 29:-147 30:-44 31:0 32:-89 33:10 34:0 35:-102 36:3 37:1 38:-171 39:241 40:1 41:-146 42:-49 43:0 44:-89 45:10 46:1 47:-103 48:3 49:1 50:-170 51:241 52:0 53:-145 54:-49 55:0 56:-89 57:11 58:1 59:-103 60:4 61:1 62:-171 63:242 64:1 65:-145 66:-50 67:0 68:-89 69:10 70:1 71:-103 72:3 73:0 74:-171 75:244 76:1 77:-145 78:-51 79:0 80:-90 81:10 82:1 83:-103 84:2 85:0 86:-172 87:244 88:1 89:-145 90:-51 91:0 92:-91 93:11 94:1 95:-103 96:3 97:0 98:-171 99:244 100:0 101:-146 102:-50 103:0 104:-90 105:11 106:1 107:-102 108:3 
-22.62741661071777 5.094507687963442 1:-1 2:-165 3:246 4:0 5:-131 6:-40 7:0 8:-89 9:17 10:1 11:-100 12:4 13:-1 14:-166 15:247 16:0 17:-131 18:-43 19:1 20:-89 21:15 22:0 23:-100 24:3 25:0 26:-165 27:246 28:3 29:-133 30:-42 31:1 32:-89 33:16 34:0 35:-100 36:4 37:0 38:-165 39:246 40:2 41:-135 42:-42 43:1 44:-89 45:16 46:0 47:-100 48:4 49:0 50:-165 51:246 52:0 53:-135 54:-42 55:1 56:-87 57:16 58:0 59:-100 60:4 61:0 62:-165 63:246 64:-1 65:-135 66:-42 67:0 68:-86 69:16 70:0 71:-100 72:4 73:0 74:-165 75:246 76:0 77:-135 78:-42 79:0 80:-86 81:15 82:0 83:-100 84:4 85:0 86:-165 87:246 88:0 89:-135 90:-42 91:0 92:-87 93:15 94:0 95:-100 96:4 97:0 98:-165 99:246 100:-1 101:-135 102:-41 103:0 104:-89 105:15 106:0 107:-100 108:4 
-0.9934393403156425 0 1:0 2:-168 3:251 4:1 5:-141 6:-30 7:0 8:-87 9:7 10:0 11:-100 12:-2 13:0 14:-168 15:251 16:1 17:-136 18:-38 19:0 20:-87 21:6 22:0 23:-100 24:-2 25:-1 26:-168 27:251 28:3 29:-127 30:-45 31:0 32:-90 33:7 34:0 35:-100 36:-2 37:0 38:-168 39:250 40:2 41:-123 42:-44 43:0 44:-90 45:8 46:0 47:-100 48:-1 49:0 50:-168 51:249 52:0 53:-123 54:-42 55:0 56:-89 57:9 58:1 59:-101 60:2 61:0 62:-168 63:248 64:1 65:-122 66:-43 67:0 68:-89 69:10 70:0 71:-102 72:3 73:0 74:-169 75:247 76:0 77:-122 78:-42 79:0 80:-88 81:10 82:0 83:-103 84:4 85:0 86:-169 87:248 88:0 89:-122 90:-43 91:0 92:-88 93:11 94:0 95:-103 96:4 97:0 98:-170 99:248 100:0 101:-122 102:-42 103:0 104:-87 105:11 106:0 107:-103 108:4 
-3.378504260233965 0.2369054683500938 1:1 2:-159 3:200 4:-2 5:-123 6:-32 7:0 8:-81 9:-7 10:0 11:-90 12:5 13:0 14:-158 15:201 16:0 17:-123 18:-37 19:0 20:-81 21:-7 22:0 23:-90 24:4 25:0 26:-158 27:201 28:0 29:-123 30:-41 31:1 32:-83 33:-9 34:0 35:-90 36:4 37:0 38:-158 39:202 40:0 41:-122 42:-46 43:1 44:-84 45:-10 46:0 47:-90 48:3 49:-1 50:-159 51:202 52:0 53:-122 54:-47 55:0 56:-83 57:-11 58:0 59:-90 60:3 61:-1 62:-159 63:202 64:1 65:-121 66:-47 67:0 68:-83 69:-11 70:0 71:-90 72:3 73:0 74:-159 75:202 76:0 77:-121 78:-47 79:0 80:-82 81:-11 82:0 83:-90 84:3 85:0 86:-159 87:202 88:0 89:-120 90:-47 91:0 92:-82 93:-10 94:0 95:-90 96:3 97:0 98:-159 99:202 100:0 101:-120 102:-47 103:0 104:-82 105:-9 106:0 107:-90 108:3 
-7.091022163429327 1.597747521354818 1:1 2:-179 3:257 4:2 5:-150 6:-17 7:0 8:-102 9:0 10:1 11:-103 12:2 13:0 14:-178 15:257 16:1 17:-154 18:-22 19:0 20:-101 21:-1 22:1 23:-104 24:2 25:0 26:-178 27:257 28:3 29:-153 30:-28 31:0 32:-100 33:-1 34:1 35:-104 36:1 37:0 38:-178 39:257 40:3 41:-151 42:-34 43:0 44:-99 45:-1 46:1 47:-104 48:1 49:0 50:-176 51:257 52:0 53:-147 54:-40 55:0 56:-99 57:-1 58:0 59:-103 60:1 61:0 62:-175 63:258 64:-3 65:-145 66:-49 67:0 68:-98 69:-1 70:0 71:-102 72:0 73:0 74:-174 75:258 76:-4 77:-143 78:-52 79:0 80:-97 81:-2 82:0 83:-101 84:0 85:0 86:-173 87:258 88:0 89:-142 90:-53 91:0 92:-97 93:-2 94:0 95:-100 96:0 97:0 98:-172 99:259 100:3 101:-141 102:-51 103:0 104:-96 105:-2 106:0 107:-100 108:-1 
-17.84805501170444 8.674503577483586 1:0 2:-165 3:255 4:0 5:-132 6:-14 7:-1 8:-89 9:6 10:0 11:-97 12:4 13:0 14:-165 15:255 16:0 17:-137 18:-18 19:0 20:-88 21:8 22:0 23:-97 24:4 25:0 26:-165 27:255 28:0 29:-142 30:-24 31:0 32:-88 33:9 34:0 35:-98 36:4 37:0 38:-166 39:255 40:0 41:-146 42:-27 43:0 44:-89 45:11 46:0 47:-99 48:4 49:0 50:-166 51:255 52:0 53:-148 54:-31 55:0 56:-89 57:12 58:0 59:-99 60:4 61:0 62:-166 63:255 64:0 65:-149 66:-37 67:-1 68:-89 69:13 70:0 71:-99 72:5 73:0 74:-166 75:254 76:-2 77:-149 78:-42 79:-1 80:-90 81:14 82:0 83:-99 84:5 85:0 86:-166 87:254 88:-3 89:-145 90:-48 91:-1 92:-90 93:15 94:0 95:-100 96:5 97:0 98:-166 99:254 100:2 101:-143 102:-50 103:0 104:-90 105:16 106:0 107:-100 108:5 
